{"learner":{"attributes":{"scikit_learn":"{\"_estimator_type\": \"classifier\"}"},"feature_names":[],"feature_types":[],"gradient_booster":{"model":{"gbtree_model_param":{"num_parallel_tree":"1","num_trees":"100"},"iteration_indptr":[0,1,2,3,4,5,6,7,8,9,10,11,12,13,14,15,16,17,18,19,20,21,22,23,24,25,26,27,28,29,30,31,32,33,34,35,36,37,38,39,40,41,42,43,44,45,46,47,48,49,50,51,52,53,54,55,56,57,58,59,60,61,62,63,64,65,66,67,68,69,70,71,72,73,74,75,76,77,78,79,80,81,82,83,84,85,86,87,88,89,90,91,92,93,94,95,96,97,98,99,100],"tree_info":[0,0,0,0,0,0,0,0,0,0,0,0,0,0,0,0,0,0,0,0,0,0,0,0,0,0,0,0,0,0,0,0,0,0,0,0,0,0,0,0,0,0,0,0,0,0,0,0,0,0,0,0,0,0,0,0,0,0,0,0,0,0,0,0,0,0,0,0,0,0,0,0,0,0,0,0,0,0,0,0,0,0,0,0,0,0,0,0,0,0,0,0,0,0,0,0,0,0,0,0],"trees":[{"base_weights":[-1.9401899E-8,2.0011343E-1,-1.5577637E-1,6.9126767E-1,9.422286E-2,7.535243E-3,-7.505253E-1,9.7727704E-1,5.8377653E-1,2.0271373E-1,-4.7518173E-1,3.446682E-1,-1.6301535E-1,-4.9018842E-1,-9.7259295E-1,1.0166214E0,-1.7166169E-1,7.654388E-1,3.6570197E-1,6.069459E-1,7.863185E-2,-3.0263504E-1,-8.840551E-1,6.6772634E-1,1.4640714E-1,3.4148157E-2,-7.1302915E-1,-1.3569611E-1,-8.443765E-1,-8.8660616E-1,-1.3579338E0,1.2329783E0,8.4967506E-1,-1.0021756E-1,7.804941E-1,6.6559803E-1,1.6416694E-1,7.9761153E-1,3.3531052E-1,2.8429517E-1,-3.3994776E-1,-4.231358E-2,-4.952879E-1,-7.9987365E-1,-4.2157525E-1,9.184653E-1,5.6780624E-1,4.67883E-1,-9.354972E-2,4.0283453E-1,-4.204739E-2,-5.3330785E-1,-9.397488E-1,-1.7338991E-2,-5.5987936E-1,-7.4690545E-1,-1.4296077E0,-6.7829615E-1,-1.115366E0,-1.3906288E0,-1.9577984E-4,4.6798244E-1,2.83322E-1,1.8825266E-1,3.6463574E-1,2.51501E-1,1.5317224E-1,-1.5815239E-1,2.274576E-1,1.3482064E-1,9.515118E-3,1.8354736E-1,3.0178457E-1,1.478432E-1,2.1365695E-2,1.8828417E-1,4.791186E-2,-6.354813E-3,-1.8648562E-1,1.1565109E-1,-6.845341E-2,-1.2032308E-1,-2.3638125E-1,-2.5109634E-1,8.5481234E-2,2.8817323E-1,-1.3868748E-1,1.8303046E-1,9.301673E-2,1.8875213E-1,8.108404E-2,4.0631574E-2,-9.6569836E-2,1.8734182E-1,3.727945E-2,3.2141715E-2,-1.17090195E-1,-1.1082933E-1,-3.1190878E-1,-1.9310145E-1,-3.311413E-1,6.4386E-2,-5.3746503E-2,-2.5392118E-1,4.156453E-2,-2.1477257E-1,-4.590732E-1,-4.58204E-1,-1.0021756E-1,-1.09042406E-1,-2.3071384E-1,-3.7580606E-1,-2.790614E-1,-4.2748156E-1,-1.9577984E-4],"categories":[],"categories_nodes":[],"categories_segments":[],"categories_sizes":[],"default_left":[0,0,0,0,0,0,0,0,0,0,0,0,0,0,0,0,0,0,0,0,0,0,0,0,0,0,0,0,0,0,0,0,0,0,0,0,0,0,0,0,0,0,0,0,0,0,0,0,0,0,0,0,0,0,0,0,0,0,0,0,0,0,0,0,0,0,0,0,0,0,0,0,0,0,0,0,0,0,0,0,0,0,0,0,0,0,0,0,0,0,0,0,0,0,0,0,0,0,0,0,0,0,0,0,0,0,0,0,0,0,0,0,0,0,0],"id":0,"left_children":[1,3,5,7,9,11,13,15,17,19,21,23,25,27,29,31,-1,33,35,37,39,41,43,45,47,49,51,53,55,57,59,61,63,-1,65,67,69,71,73,75,77,79,81,83,-1,85,87,89,91,93,95,97,99,101,103,105,107,109,111,113,-1,-1,-1,-1,-1,-1,-1,-1,-1,-1,-1,-1,-1,-1,-1,-1,-1,-1,-1,-1,-1,-1,-1,-1,-1,-1,-1,-1,-1,-1,-1,-1,-1,-1,-1,-1,-1,-1,-1,-1,-1,-1,-1,-1,-1,-1,-1,-1,-1,-1,-1,-1,-1,-1,-1],"loss_changes":[1.7202783E2,1.2556161E2,3.013981E2,1.2595367E1,1.22920845E2,1.4009306E2,3.8170837E1,7.622978E0,1.2149567E1,8.375353E1,2.2202545E1,5.232701E1,1.754845E2,3.8776672E1,1.0716034E1,3.0339432E0,0E0,3.0789185E0,8.624243E0,2.004776E1,1.1024425E2,1.1288244E1,3.0002136E0,7.270233E0,3.9269615E1,3.3502903E1,1.6897522E1,7.822288E0,7.7596436E0,1.3396408E1,2.8280945E0,2.9613342E0,4.6819344E0,0E0,2.198845E0,6.777813E0,3.3008842E0,8.2773285E0,6.7655945E0,3.6621002E1,3.787688E1,7.8010135E0,3.2543926E0,3.5902863E0,0E0,5.5028152E0,2.26371E0,6.762001E0,1.5312101E1,1.2533134E1,5.1411972E1,1.9573837E1,8.396957E0,4.6552143E0,6.921234E0,2.176361E0,1.738411E0,4.234535E0,2.394455E0,2.967743E0,0E0,0E0,0E0,0E0,0E0,0E0,0E0,0E0,0E0,0E0,0E0,0E0,0E0,0E0,0E0,0E0,0E0,0E0,0E0,0E0,0E0,0E0,0E0,0E0,0E0,0E0,0E0,0E0,0E0,0E0,0E0,0E0,0E0,0E0,0E0,0E0,0E0,0E0,0E0,0E0,0E0,0E0,0E0,0E0,0E0,0E0,0E0,0E0,0E0,0E0,0E0,0E0,0E0,0E0,0E0],"parents":[2147483647,0,0,1,1,2,2,3,3,4,4,5,5,6,6,7,7,8,8,9,9,10,10,11,11,12,12,13,13,14,14,15,15,17,17,18,18,19,19,20,20,21,21,22,22,23,23,24,24,25,25,26,26,27,27,28,28,29,29,30,30,31,31,32,32,34,34,35,35,36,36,37,37,38,38,39,39,40,40,41,41,42,42,43,43,45,45,46,46,47,47,48,48,49,49,50,50,51,51,52,52,53,53,54,54,55,55,56,56,57,57,58,58,59,59],"right_children":[2,4,6,8,10,12,14,16,18,20,22,24,26,28,30,32,-1,34,36,38,40,42,44,46,48,50,52,54,56,58,60,62,64,-1,66,68,70,72,74,76,78,80,82,84,-1,86,88,90,92,94,96,98,100,102,104,106,108,110,112,114,-1,-1,-1,-1,-1,-1,-1,-1,-1,-1,-1,-1,-1,-1,-1,-1,-1,-1,-1,-1,-1,-1,-1,-1,-1,-1,-1,-1,-1,-1,-1,-1,-1,-1,-1,-1,-1,-1,-1,-1,-1,-1,-1,-1,-1,-1,-1,-1,-1,-1,-1,-1,-1,-1,-1],"split_conditions":[8.464159E-2,9.5236264E-2,-1.6432247E-1,-2.2611833E-1,-1.822429E-1,5.489206E-1,2.6199892E-1,2.0613685E0,-8.551092E-2,5.169689E-1,4.6651155E-1,-5.243934E-1,-6.700272E-1,8.730305E-2,2.2496587E-1,-3.827897E-1,-1.7166169E-1,-2.165595E-1,-8.314966E-2,-3.745992E-1,-8.2688725E-1,-7.746867E-2,8.3658767E-1,3.2982162E-1,3.125431E-1,7.165417E-1,-4.4122857E-1,9.033201E-1,5.523662E-1,4.4628E-1,1.5432028E0,-2.4777313E-1,-2.671451E-1,-1.0021756E-1,1.1780523E0,-2.165595E-1,-6.407445E-1,1.2259372E-1,3.3813652E-1,1.1127639E0,7.2796655E-1,1.9598553E-1,3.519717E-1,8.1688136E-1,-4.2157525E-1,1.8718381E0,-5.698709E-1,2.2756661E-1,-3.5031375E-1,-8.495386E-1,-1.0144372E0,8.4955E-1,6.4395034E-1,-6.8452284E-2,1.633621E0,1.9309577E0,8.424617E-1,-9.895303E-2,7.912344E-2,6.948427E-1,-1.9577984E-4,4.6798244E-1,2.83322E-1,1.8825266E-1,3.6463574E-1,2.51501E-1,1.5317224E-1,-1.5815239E-1,2.274576E-1,1.3482064E-1,9.515118E-3,1.8354736E-1,3.0178457E-1,1.478432E-1,2.1365695E-2,1.8828417E-1,4.791186E-2,-6.354813E-3,-1.8648562E-1,1.1565109E-1,-6.845341E-2,-1.2032308E-1,-2.3638125E-1,-2.5109634E-1,8.5481234E-2,2.8817323E-1,-1.3868748E-1,1.8303046E-1,9.301673E-2,1.8875213E-1,8.108404E-2,4.0631574E-2,-9.6569836E-2,1.8734182E-1,3.727945E-2,3.2141715E-2,-1.17090195E-1,-1.1082933E-1,-3.1190878E-1,-1.9310145E-1,-3.311413E-1,6.4386E-2,-5.3746503E-2,-2.5392118E-1,4.156453E-2,-2.1477257E-1,-4.590732E-1,-4.58204E-1,-1.0021756E-1,-1.09042406E-1,-2.3071384E-1,-3.7580606E-1,-2.790614E-1,-4.2748156E-1,-1.9577984E-4],"split_indices":[2,3,3,3,2,2,2,0,2,3,3,3,3,3,3,3,0,3,3,2,2,2,3,2,2,2,3,0,3,2,0,0,3,0,0,3,0,0,3,3,3,3,3,3,0,0,3,2,3,3,3,2,2,3,0,0,0,3,0,2,0,0,0,0,0,0,0,0,0,0,0,0,0,0,0,0,0,0,0,0,0,0,0,0,0,0,0,0,0,0,0,0,0,0,0,0,0,0,0,0,0,0,0,0,0,0,0,0,0,0,0,0,0,0,0],"split_type":[0,0,0,0,0,0,0,0,0,0,0,0,0,0,0,0,0,0,0,0,0,0,0,0,0,0,0,0,0,0,0,0,0,0,0,0,0,0,0,0,0,0,0,0,0,0,0,0,0,0,0,0,0,0,0,0,0,0,0,0,0,0,0,0,0,0,0,0,0,0,0,0,0,0,0,0,0,0,0,0,0,0,0,0,0,0,0,0,0,0,0,0,0,0,0,0,0,0,0,0,0,0,0,0,0,0,0,0,0,0,0,0,0,0,0],"sum_hessian":[5.5164985E3,2.4144993E3,3.101999E3,4.2724988E2,1.9872494E3,2.4344993E3,6.674998E2,1.1449997E2,3.127499E2,1.6697495E3,3.174999E2,8.1749976E2,1.6169995E3,3.087499E2,3.5874988E2,1.1199997E2,2.4999993E0,1.6924995E2,1.4349995E2,3.9124988E2,1.2784996E3,2.2449994E2,9.299997E1,3.099999E2,5.0749985E2,1.1909996E3,4.2599988E2,1.5499995E2,1.5374995E2,2.959999E2,6.274998E1,4.5999985E1,6.599998E1,1.9999994E0,1.6724995E2,5.6749985E1,8.674998E1,2.2874994E2,1.6249995E2,8.5749976E2,4.2099988E2,9.599997E1,1.2849995E2,8.224998E1,1.0749997E1,8.599998E1,2.2399994E2,2.1649994E2,2.909999E2,2.0324994E2,9.877497E2,2.3949992E2,1.8649994E2,1.2199996E2,3.299999E1,1.3374995E2,1.9999994E1,1.5699995E2,1.3899995E2,6.124998E1,1.4999995E0,1.9499994E1,2.6499992E1,4.274999E1,2.3249992E1,1.3599995E2,3.124999E1,3.7499988E0,5.2999985E1,2.6749992E1,5.999998E1,1.2299996E2,1.0574997E2,1.0124997E2,6.124998E1,2.2724994E2,6.302498E2,1.9799994E2,2.2299994E2,2.8749992E1,6.724998E1,9.899997E1,2.949999E1,7.974998E1,2.4999993E0,8.374998E1,2.2499993E0,1.9124994E2,3.274999E1,1.1799996E2,9.849997E1,1.4549995E2,1.4549995E2,1.1249997E2,9.074997E1,6.919998E2,2.957499E2,1.8224994E2,5.7249985E1,6.824998E1,1.1824996E2,4.9999985E1,7.199998E1,2.3249992E1,9.749997E0,1.3049995E2,3.249999E0,1.7999994E1,1.9999994E0,3.624999E1,1.2074996E2,7.649998E1,6.249998E1,5.974998E1,1.4999995E0],"tree_param":{"num_deleted":"0","num_feature":"4","num_nodes":"115","size_leaf_vector":"1"}},{"base_weights":[-4.1975453E-4,1.419666E-1,-1.113486E-1,4.6765116E-1,5.733585E-2,1.7926998E-2,-4.99207E-1,7.135867E-1,3.9397925E-1,1.3225657E-1,-3.825484E-1,2.938165E-1,-1.0870887E-1,-3.3693275E-1,-7.180992E-1,7.439202E-1,-4.522227E-1,5.553994E-1,1.8607718E-1,4.0889922E-1,5.527503E-2,-2.536599E-1,-6.3842034E-1,4.9484193E-1,1.7051288E-1,6.5905444E-2,-4.2273694E-1,-8.653359E-2,-6.6920227E-1,-5.9822625E-1,-8.403293E-1,9.1403455E-1,6.152604E-1,-3.8461056E-2,-1.7233276E-1,7.73591E-1,4.76108E-1,4.7382423E-1,3.8900778E-2,7.720477E-1,2.9454124E-1,1.9999798E-1,-2.3978345E-1,4.312001E-1,-2.7975294E-1,-9.474589E-1,-5.30393E-1,7.59686E-1,4.274907E-1,3.1610164E-1,-1.18895605E-1,3.840739E-1,-1.6111266E-2,-1.2597369E-1,-5.403408E-1,7.1201295E-2,-3.234509E-1,-6.092313E-1,-1.1174986E0,-6.5549105E-1,1.641443E-1,-7.4426234E-1,-1.049067E0,1.7264019E-1,3.2587275E-1,-1.5722883E-1,1.9751419E-1,2.759617E-1,8.602714E-2,-5.2611497E-3,1.5311395E-1,-4.6379752E-2,1.7349733E-1,4.7042172E-2,-5.8785815E-2,3.8715306E-1,2.1037559E-1,1.4883948E-2,1.275574E-1,1.6299666E-1,3.9934937E-2,8.547741E-3,-1.2721932E-1,3.870865E-1,-1.4459872E-1,-1.124214E-1,-4.994934E-2,2.2024378E-2,-3.3579072E-1,9.877949E-2,-1.9998737E-1,1.4820401E-1,2.833003E-1,-5.8249097E-2,1.3555892E-1,1.6995847E-1,7.237586E-2,8.900392E-4,-1.0089239E-1,1.2600209E-1,-5.1079E-2,1.5144669E-2,-9.6501686E-2,6.0148038E-2,-9.58618E-2,-1.155247E-1,-2.557467E-1,-1.9478546E-1,3.5346497E-2,-5.7967853E-2,-1.5040979E-1,-1.4306079E-1,-2.4828684E-1,-4.6775796E-2,-3.649807E-1,-3.2932872E-1,-1.7048162E-1,2.639774E-1,-1.01100914E-1,-2.3208748E-1,1.7974757E-2,8.366525E-2,-3.3772066E-1],"categories":[],"categories_nodes":[],"categories_segments":[],"categories_sizes":[],"default_left":[0,0,0,0,0,0,0,0,0,0,0,0,0,0,0,0,0,0,0,0,0,0,0,0,0,0,0,0,0,0,0,0,0,0,0,0,0,0,0,0,0,0,0,0,0,0,0,0,0,0,0,0,0,0,0,0,0,0,0,0,0,0,0,0,0,0,0,0,0,0,0,0,0,0,0,0,0,0,0,0,0,0,0,0,0,0,0,0,0,0,0,0,0,0,0,0,0,0,0,0,0,0,0,0,0,0,0,0,0,0,0,0,0,0,0,0,0,0,0,0,0,0,0],"id":1,"left_children":[1,3,5,7,9,11,13,15,17,19,21,23,25,27,29,31,33,35,37,39,41,43,45,47,49,51,53,55,57,59,61,63,65,-1,-1,67,69,71,73,75,77,79,81,83,85,87,89,91,93,95,97,99,101,103,105,107,109,111,113,115,117,119,121,-1,-1,-1,-1,-1,-1,-1,-1,-1,-1,-1,-1,-1,-1,-1,-1,-1,-1,-1,-1,-1,-1,-1,-1,-1,-1,-1,-1,-1,-1,-1,-1,-1,-1,-1,-1,-1,-1,-1,-1,-1,-1,-1,-1,-1,-1,-1,-1,-1,-1,-1,-1,-1,-1,-1,-1,-1,-1,-1,-1],"loss_changes":[8.651669E1,6.6087555E1,1.5438629E2,8.680374E0,6.2834755E1,8.07438E1,2.7098557E1,4.3245697E0,1.2744183E1,3.4659813E1,8.989887E0,1.7937378E1,8.689106E1,3.6874943E1,4.28566E0,1.851654E0,6.424326E-2,3.3513565E0,7.1313076E0,1.4489204E1,5.450077E1,3.4481258E0,2.5788956E0,4.596428E0,1.9089663E1,2.6594652E1,1.9693031E1,9.525769E0,4.443886E0,7.462242E0,2.4144363E0,2.024044E0,3.5806446E0,0E0,0E0,3.703308E0,2.720829E0,3.8353043E0,3.1538506E0,2.1874619E0,8.654665E0,1.9585407E1,2.0780712E1,6.2919903E0,1.8737211E0,4.0531654E0,8.495226E0,2.2143154E0,3.4549217E0,5.507332E0,4.0298285E0,4.231827E0,1.6519651E1,1.0301557E1,1.9309624E1,5.231554E0,2.2620468E0,4.528866E0,1.8393993E0,5.4283066E0,4.8054314E0,2.7042427E0,5.178379E0,0E0,0E0,0E0,0E0,0E0,0E0,0E0,0E0,0E0,0E0,0E0,0E0,0E0,0E0,0E0,0E0,0E0,0E0,0E0,0E0,0E0,0E0,0E0,0E0,0E0,0E0,0E0,0E0,0E0,0E0,0E0,0E0,0E0,0E0,0E0,0E0,0E0,0E0,0E0,0E0,0E0,0E0,0E0,0E0,0E0,0E0,0E0,0E0,0E0,0E0,0E0,0E0,0E0,0E0,0E0,0E0,0E0,0E0,0E0,0E0],"parents":[2147483647,0,0,1,1,2,2,3,3,4,4,5,5,6,6,7,7,8,8,9,9,10,10,11,11,12,12,13,13,14,14,15,15,16,16,17,17,18,18,19,19,20,20,21,21,22,22,23,23,24,24,25,25,26,26,27,27,28,28,29,29,30,30,31,31,32,32,35,35,36,36,37,37,38,38,39,39,40,40,41,41,42,42,43,43,44,44,45,45,46,46,47,47,48,48,49,49,50,50,51,51,52,52,53,53,54,54,55,55,56,56,57,57,58,58,59,59,60,60,61,61,62,62],"right_children":[2,4,6,8,10,12,14,16,18,20,22,24,26,28,30,32,34,36,38,40,42,44,46,48,50,52,54,56,58,60,62,64,66,-1,-1,68,70,72,74,76,78,80,82,84,86,88,90,92,94,96,98,100,102,104,106,108,110,112,114,116,118,120,122,-1,-1,-1,-1,-1,-1,-1,-1,-1,-1,-1,-1,-1,-1,-1,-1,-1,-1,-1,-1,-1,-1,-1,-1,-1,-1,-1,-1,-1,-1,-1,-1,-1,-1,-1,-1,-1,-1,-1,-1,-1,-1,-1,-1,-1,-1,-1,-1,-1,-1,-1,-1,-1,-1,-1,-1,-1,-1,-1,-1],"split_conditions":[8.464159E-2,1.4927804E-1,-2.2611833E-1,-2.2611833E-1,-1.822429E-1,5.489206E-1,3.3564496E-1,2.0613685E0,-8.551092E-2,5.169689E-1,4.6651155E-1,-5.521462E-1,-8.031582E-1,8.730305E-2,4.845972E-1,-3.827897E-1,-2.7397092E-2,-3.4447038E-1,-8.314966E-2,-6.069408E-1,-8.2688725E-1,-1.9744129E0,-8.6679006E-1,2.902051E-1,4.1474983E-1,7.833558E-1,6.4395034E-1,2.7039272E-1,5.523662E-1,1.0998058E0,3.350437E-2,-4.9563104E-1,-1.9744129E0,-3.8461056E-2,-1.7233276E-1,9.311411E-1,-3.19468E-1,-2.0797078E-1,6.8164125E-2,-1.5066726E0,-4.7903505E-1,9.360475E-1,6.971504E-1,-8.551092E-2,1.2259372E-1,4.9208847E-1,-5.6771445E-1,-2.4777313E-1,3.064263E-1,-4.6109837E-1,-3.5031375E-1,1.1154552E0,-9.9666154E-1,-5.875583E-1,-5.055125E-1,-1.9744129E0,-4.9948834E-2,2.2026911E-1,-9.119991E-1,3.5737798E-1,3.787134E-1,1.6378028E-2,-1.3849559E0,1.7264019E-1,3.2587275E-1,-1.5722883E-1,1.9751419E-1,2.759617E-1,8.602714E-2,-5.2611497E-3,1.5311395E-1,-4.6379752E-2,1.7349733E-1,4.7042172E-2,-5.8785815E-2,3.8715306E-1,2.1037559E-1,1.4883948E-2,1.275574E-1,1.6299666E-1,3.9934937E-2,8.547741E-3,-1.2721932E-1,3.870865E-1,-1.4459872E-1,-1.124214E-1,-4.994934E-2,2.2024378E-2,-3.3579072E-1,9.877949E-2,-1.9998737E-1,1.4820401E-1,2.833003E-1,-5.8249097E-2,1.3555892E-1,1.6995847E-1,7.237586E-2,8.900392E-4,-1.0089239E-1,1.2600209E-1,-5.1079E-2,1.5144669E-2,-9.6501686E-2,6.0148038E-2,-9.58618E-2,-1.155247E-1,-2.557467E-1,-1.9478546E-1,3.5346497E-2,-5.7967853E-2,-1.5040979E-1,-1.4306079E-1,-2.4828684E-1,-4.6775796E-2,-3.649807E-1,-3.2932872E-1,-1.7048162E-1,2.639774E-1,-1.01100914E-1,-2.3208748E-1,1.7974757E-2,8.366525E-2,-3.3772066E-1],"split_indices":[2,3,3,3,2,2,2,0,2,3,3,3,3,3,2,3,2,2,3,2,2,0,0,2,2,2,2,0,3,0,3,3,0,0,0,0,2,3,3,0,0,3,3,2,0,3,0,0,2,3,3,0,3,3,3,0,3,2,0,2,2,3,0,0,0,0,0,0,0,0,0,0,0,0,0,0,0,0,0,0,0,0,0,0,0,0,0,0,0,0,0,0,0,0,0,0,0,0,0,0,0,0,0,0,0,0,0,0,0,0,0,0,0,0,0,0,0,0,0,0,0,0,0],"split_type":[0,0,0,0,0,0,0,0,0,0,0,0,0,0,0,0,0,0,0,0,0,0,0,0,0,0,0,0,0,0,0,0,0,0,0,0,0,0,0,0,0,0,0,0,0,0,0,0,0,0,0,0,0,0,0,0,0,0,0,0,0,0,0,0,0,0,0,0,0,0,0,0,0,0,0,0,0,0,0,0,0,0,0,0,0,0,0,0,0,0,0,0,0,0,0,0,0,0,0,0,0,0,0,0,0,0,0,0,0,0,0,0,0,0,0,0,0,0,0,0,0,0,0],"sum_hessian":[5.475557E3,2.3976697E3,3.0778875E3,4.9360474E2,1.9040651E3,2.309178E3,7.687095E2,1.1177737E2,3.8182736E2,1.6275598E3,2.7650528E2,7.2606006E2,1.5831179E3,4.4290445E2,3.2580502E2,1.0929546E2,2.481903E0,2.1400066E2,1.6782672E2,3.5336987E2,1.27419E3,1.8520479E2,9.130049E1,2.7488837E2,4.5117166E2,1.0179051E3,5.652128E2,2.5328708E2,1.8961737E2,1.6746443E2,1.5834059E2,4.4436768E1,6.4858696E1,1.2409515E0,1.2409515E0,5.4706055E1,1.592946E2,5.6040863E1,1.1178585E2,8.3251175E1,2.7011868E2,8.550966E2,4.1909332E2,6.2274857E0,1.789773E2,2.1635706E1,6.966478E1,5.364837E1,2.2123999E2,3.0010815E2,1.5106352E2,2.078617E2,8.1004333E2,1.6100404E2,4.0420877E2,1.52473E2,1.0081407E2,1.6932487E2,2.0292488E1,1.5589473E2,1.1569699E1,1.1156214E2,4.6778454E1,1.6445667E1,2.7991098E1,1.958384E0,6.2900314E1,4.1382233E1,1.332382E1,1.037292E1,1.4892168E2,7.9219494E0,4.8118916E1,7.464381E1,3.7142048E1,7.932205E0,7.531897E1,9.4444496E1,1.756742E2,1.3825676E2,7.1683984E2,1.7099883E2,2.4809448E2,2.9960327E0,3.2314527E0,9.608431E1,8.289298E1,3.1997395E0,1.8435966E1,9.335883E0,6.03289E1,2.3504887E1,3.014348E1,8.083783E0,2.131562E2,6.7546E1,2.3256216E2,9.743584E1,5.362768E1,1.9543558E2,1.2426117E1,6.6577924E2,1.4426413E2,5.99153E1,1.0108874E2,2.7143448E2,1.327743E2,8.480806E0,1.439922E2,5.9412918E1,4.1401154E1,1.0740981E2,6.1915066E1,2.136438E0,1.815605E1,2.3770863E1,1.3212387E2,4.453302E0,7.116397E0,1.07668884E2,3.8932614E0,2.409349E0,4.4369102E1],"tree_param":{"num_deleted":"0","num_feature":"4","num_nodes":"123","size_leaf_vector":"1"}},{"base_weights":[-6.2890054E-4,1.1771009E-1,-7.2070524E-2,4.005456E-1,5.5418134E-2,7.278577E-3,-4.0654713E-1,5.618451E-1,3.558113E-1,1.4832142E-1,-1.1883275E-1,3.6369422E-1,-4.8044216E-2,-3.0488613E-1,-5.684702E-1,4.7057706E-1,9.5765543E-1,3.3718824E-1,1.155373E0,4.8383987E-1,8.066779E-2,8.546861E-2,-2.7061653E-1,5.4946554E-1,2.4025723E-1,1.7510334E-2,-3.0288097E-1,-8.8663064E-2,-4.2070004E-1,-5.2611476E-1,-1.2401049E0,5.820842E-1,6.394557E-2,1.04577E0,8.48775E-3,4.0784702E-1,1.8230101E-1,3.22125E-2,4.185205E-1,6.0211873E-1,3.395643E-1,2.0191756E-1,-1.7751858E-1,4.0357023E-1,-2.8559908E-2,-5.31329E-1,-1.5274532E-1,-3.1852117E-1,5.699197E-1,3.912108E-1,1.3573562E-1,2.0886491E-1,-5.6139667E-2,-1.04121864E-1,-5.4250515E-1,5.0658204E-2,-2.188376E-1,-3.638669E-1,-8.427526E-1,-3.9314133E-1,-8.269177E-1,-3.8904864E-1,-8.959953E-2,7.2876535E-2,2.892159E-1,2.566711E-1,-4.485584E-2,3.6214477E-1,1.8721862E-1,-7.6368734E-2,1.278375E-1,6.790302E-2,-1.6639102E-1,1.8615617E-1,-1.4997216E-1,1.4755227E-1,-7.529797E-2,1.7320691E-1,2.8445968E-2,-1.5381954E-2,-1.6083308E-1,2.185286E-2,2.1118906E-1,7.451351E-3,-2.02352E-1,-3.8820077E-2,-1.8713078E-1,-2.3995807E-2,-1.5152366E-1,1.6952458E-1,-3.397545E-1,1.7721774E-1,-9.362186E-2,1.439627E-1,-1.1136815E-2,-1.789002E-1,5.2009523E-2,1.0642157E-1,2.7149573E-2,2.1056771E-2,-7.073892E-2,2.1791838E-2,-7.265132E-2,-1.1917932E-1,-2.1878518E-1,1.4716774E-1,-1.6561149E-2,-3.270327E-1,-4.7756314E-2,-9.020259E-2,-2.3980086E-1,-2.9158598E-1,2.280798E-2,1.6411796E-1,-1.2397418E-1,-2.5909704E-1,8.39967E-2],"categories":[],"categories_nodes":[],"categories_segments":[],"categories_sizes":[],"default_left":[0,0,0,0,0,0,0,0,0,0,0,0,0,0,0,0,0,0,0,0,0,0,0,0,0,0,0,0,0,0,0,0,0,0,0,0,0,0,0,0,0,0,0,0,0,0,0,0,0,0,0,0,0,0,0,0,0,0,0,0,0,0,0,0,0,0,0,0,0,0,0,0,0,0,0,0,0,0,0,0,0,0,0,0,0,0,0,0,0,0,0,0,0,0,0,0,0,0,0,0,0,0,0,0,0,0,0,0,0,0,0,0,0,0,0,0,0],"id":2,"left_children":[1,3,5,7,9,11,13,15,17,19,21,23,25,27,29,31,33,35,37,39,41,43,45,47,49,51,53,55,57,59,61,63,65,67,-1,69,71,-1,-1,73,75,77,79,81,83,85,87,89,91,93,95,97,99,101,103,105,107,109,111,113,115,-1,-1,-1,-1,-1,-1,-1,-1,-1,-1,-1,-1,-1,-1,-1,-1,-1,-1,-1,-1,-1,-1,-1,-1,-1,-1,-1,-1,-1,-1,-1,-1,-1,-1,-1,-1,-1,-1,-1,-1,-1,-1,-1,-1,-1,-1,-1,-1,-1,-1,-1,-1,-1,-1,-1,-1],"loss_changes":[4.568612E1,3.5818043E1,8.943398E1,2.448227E0,2.7024088E1,5.373873E1,1.0462715E1,2.3655262E0,3.9292564E0,2.4670229E1,1.8030188E1,8.265106E0,3.9419098E1,9.95631E0,6.403801E0,2.9243317E0,1.0875063E0,3.0431404E0,1.4050589E0,2.9092445E0,2.8432503E1,9.017453E0,1.0164642E1,2.7630844E0,3.446166E0,2.6472042E1,2.2937393E1,2.5585763E0,5.9206085E0,9.077347E0,3.5912323E-1,6.3904114E0,2.693065E0,9.2731476E-2,0E0,2.467102E0,3.0806098E0,0E0,0E0,2.317276E0,7.7216473E0,2.4782066E1,1.3118937E1,6.4642E0,6.3530207E0,3.761139E0,5.8815594E0,3.5091312E0,2.7978325E0,3.4436636E0,3.7555296E0,8.981199E0,3.080356E1,6.4872904E0,5.641884E0,3.22454E0,3.6102004E0,6.104313E0,3.641117E0,3.3435555E0,3.1353798E0,0E0,0E0,0E0,0E0,0E0,0E0,0E0,0E0,0E0,0E0,0E0,0E0,0E0,0E0,0E0,0E0,0E0,0E0,0E0,0E0,0E0,0E0,0E0,0E0,0E0,0E0,0E0,0E0,0E0,0E0,0E0,0E0,0E0,0E0,0E0,0E0,0E0,0E0,0E0,0E0,0E0,0E0,0E0,0E0,0E0,0E0,0E0,0E0,0E0,0E0,0E0,0E0,0E0,0E0,0E0,0E0],"parents":[2147483647,0,0,1,1,2,2,3,3,4,4,5,5,6,6,7,7,8,8,9,9,10,10,11,11,12,12,13,13,14,14,15,15,16,16,17,17,18,18,19,19,20,20,21,21,22,22,23,23,24,24,25,25,26,26,27,27,28,28,29,29,30,30,31,31,32,32,33,33,35,35,36,36,39,39,40,40,41,41,42,42,43,43,44,44,45,45,46,46,47,47,48,48,49,49,50,50,51,51,52,52,53,53,54,54,55,55,56,56,57,57,58,58,59,59,60,60],"right_children":[2,4,6,8,10,12,14,16,18,20,22,24,26,28,30,32,34,36,38,40,42,44,46,48,50,52,54,56,58,60,62,64,66,68,-1,70,72,-1,-1,74,76,78,80,82,84,86,88,90,92,94,96,98,100,102,104,106,108,110,112,114,116,-1,-1,-1,-1,-1,-1,-1,-1,-1,-1,-1,-1,-1,-1,-1,-1,-1,-1,-1,-1,-1,-1,-1,-1,-1,-1,-1,-1,-1,-1,-1,-1,-1,-1,-1,-1,-1,-1,-1,-1,-1,-1,-1,-1,-1,-1,-1,-1,-1,-1,-1,-1,-1,-1,-1,-1],"split_conditions":[-5.8000997E-2,2.3308305E-1,-4.9948834E-2,-3.745992E-1,-6.069408E-1,2.4134913E-1,2.2496587E-1,-4.010523E-1,2.2496587E-1,7.2796655E-1,4.6651155E-1,-3.1670478E-1,-3.827897E-1,1.3234521E-1,7.4452376E-1,1.87186E-1,1.4110531E0,9.5236264E-2,-2.5714737E-1,5.8198094E-1,-1.1912616E0,-4.1648236E-1,-6.859536E-1,-4.0600836E-2,9.2881344E-2,6.054714E-1,4.845972E-1,6.8164125E-2,5.7609004E-1,2.2026911E-1,2.0725062E-1,1.13110796E-1,-7.3875284E-1,2.5220279E-2,8.48775E-3,-1.9744129E0,1.7831588E0,3.22125E-2,4.185205E-1,2.1413538E0,-6.780731E-1,1.3243043E0,1.1684961E0,-3.5638124E-2,1.633621E0,5.400304E-1,8.93475E-1,-5.6771445E-1,2.1413538E0,1.0528579E0,1.003496E-1,-6.3959E-1,-9.5524746E-1,-2.4899556E-1,6.5100867E-1,-9.7633517E-1,7.8494534E-2,1.0076488E0,1.4927804E-1,-2.1274283E0,6.2437105E-1,-3.8904864E-1,-8.959953E-2,7.2876535E-2,2.892159E-1,2.566711E-1,-4.485584E-2,3.6214477E-1,1.8721862E-1,-7.6368734E-2,1.278375E-1,6.790302E-2,-1.6639102E-1,1.8615617E-1,-1.4997216E-1,1.4755227E-1,-7.529797E-2,1.7320691E-1,2.8445968E-2,-1.5381954E-2,-1.6083308E-1,2.185286E-2,2.1118906E-1,7.451351E-3,-2.02352E-1,-3.8820077E-2,-1.8713078E-1,-2.3995807E-2,-1.5152366E-1,1.6952458E-1,-3.397545E-1,1.7721774E-1,-9.362186E-2,1.439627E-1,-1.1136815E-2,-1.789002E-1,5.2009523E-2,1.0642157E-1,2.7149573E-2,2.1056771E-2,-7.073892E-2,2.1791838E-2,-7.265132E-2,-1.1917932E-1,-2.1878518E-1,1.4716774E-1,-1.6561149E-2,-3.270327E-1,-4.7756314E-2,-9.020259E-2,-2.3980086E-1,-2.9158598E-1,2.280798E-2,1.6411796E-1,-1.2397418E-1,-2.5909704E-1,8.39967E-2],"split_indices":[2,3,3,2,2,2,3,2,3,3,3,3,3,2,3,3,0,3,2,3,2,2,0,2,2,2,2,3,2,2,2,3,2,0,0,0,0,0,0,0,2,3,3,0,0,3,3,0,0,0,2,3,3,3,2,0,3,0,3,0,3,0,0,0,0,0,0,0,0,0,0,0,0,0,0,0,0,0,0,0,0,0,0,0,0,0,0,0,0,0,0,0,0,0,0,0,0,0,0,0,0,0,0,0,0,0,0,0,0,0,0,0,0,0,0,0,0],"split_type":[0,0,0,0,0,0,0,0,0,0,0,0,0,0,0,0,0,0,0,0,0,0,0,0,0,0,0,0,0,0,0,0,0,0,0,0,0,0,0,0,0,0,0,0,0,0,0,0,0,0,0,0,0,0,0,0,0,0,0,0,0,0,0,0,0,0,0,0,0,0,0,0,0,0,0,0,0,0,0,0,0,0,0,0,0,0,0,0,0,0,0,0,0,0,0,0,0,0,0,0,0,0,0,0,0,0,0,0,0,0,0,0,0,0,0,0,0],"sum_hessian":[5.401869E3,2.0332532E3,3.3686162E3,3.6600122E2,1.667252E3,2.7234907E3,6.4512537E2,7.695678E1,2.8904446E2,1.0875594E3,5.7969244E2,3.6518997E2,2.3583008E3,3.9807977E2,2.470456E2,6.431547E1,1.2641307E1,2.8385474E2,5.1896996E0,1.8146387E2,9.0609564E2,2.4728418E2,3.3240826E2,1.4440723E2,2.2078275E2,1.8765149E3,4.8178592E2,1.3946532E2,2.5861444E2,2.3406789E2,1.2977717E1,5.0135704E1,1.4179765E1,1.1432148E1,1.2091588E0,1.9380756E2,9.0047195E1,1.2355555E0,3.954144E0,9.797192E1,8.349195E1,6.166988E2,2.8939685E2,6.4582184E1,1.8270201E2,1.0240247E2,2.3000578E2,2.989125E0,1.414181E2,8.920586E1,1.3157689E2,5.2101025E2,1.3555046E3,2.6413257E2,2.1765335E2,6.766098E1,7.1804344E1,2.2956377E2,2.9050676E1,1.6391452E2,7.015335E1,1.1884175E1,1.0935421E0,2.7422424E1,2.2713282E1,2.3727021E0,1.1807063E1,6.9210725E0,4.5110755E0,4.8570266E0,1.8895053E2,8.562289E1,4.424309E0,9.679259E1,1.1793287E0,6.650949E1,1.6982464E1,1.3590009E2,4.8079868E2,2.1488696E2,7.450989E1,3.133044E1,3.325174E1,1.696401E2,1.3061897E1,1.9596598E1,8.280588E1,1.9165477E2,3.8351017E1,1.5799046E0,1.4092205E0,1.3848158E2,2.9365182E0,7.380742E1,1.539844E1,5.706727E0,1.25870155E2,2.3249213E2,2.8851813E2,7.9623016E2,5.592745E2,1.1603391E2,1.4809865E2,1.2420073E2,9.345263E1,1.241937E1,5.524161E1,3.4940262E0,6.831032E1,2.019491E2,2.7614674E1,2.5418411E1,3.6322656E0,2.8831437E0,1.6103139E2,6.811241E1,2.040944E0],"tree_param":{"num_deleted":"0","num_feature":"4","num_nodes":"117","size_leaf_vector":"1"}},{"base_weights":[-6.928925E-4,8.4197275E-2,-5.3776037E-2,2.8090066E-1,3.884948E-2,-5.0328868E-3,-3.5647762E-1,3.6462802E-1,1.9314961E-1,3.018E-1,4.1255634E-3,1.658643E-1,-5.2651513E-2,-3.1558666E-1,-7.6712E-1,4.2502406E-1,2.302461E-1,6.001615E-1,1.22105725E-1,6.3715637E-1,1.7880449E-1,3.8441334E-2,-3.47238E-1,4.0359282E-1,7.0770994E-2,2.3526512E-2,-2.2879748E-1,-1.9769315E-1,-4.8390228E-1,-8.6120635E-1,-8.6311065E-2,3.772084E-1,2.9905665E-1,1.4844652E-2,4.5333695E-1,9.2519003E-1,2.9471803E-1,-4.4375068E-1,1.5624142E-1,7.5236833E-1,2.128066E-1,4.0876165E-1,-1.5799497E-1,6.643706E-1,-3.6511528E-3,-1.23355046E-1,-5.717737E-1,1.0346445E0,3.6201486E-1,1.3822035E-1,-8.7150685E-2,1.525866E-1,-1.15691796E-1,-1.3829839E-1,-4.7196105E-1,-4.3289495E-1,-1.3425885E-1,-8.003256E-1,-4.278234E-1,-1.0638386E0,-3.3365518E-1,4.863165E-1,-2.715703E-1,1.1932484E-1,-2.8995883E-1,1.0940751E-1,-1.0564965E-1,-1.7536332E-1,1.5382838E-1,1.2533773E-1,3.2490802E-1,-6.535829E-2,1.2511784E-1,8.927679E-2,-2.3335288E-1,6.6477344E-3,7.471346E-2,1.4099634E-1,3.2122165E-1,-1.2373266E-1,1.1137957E-1,7.782616E-2,2.9350147E-1,-3.5325962E-3,-2.2437511E-1,2.4680074E-1,7.9909384E-2,2.015378E-2,-4.652903E-2,-2.3197421E-1,-6.754845E-3,-4.8879515E-2,-2.1522364E-1,8.7712735E-2,3.2716614E-1,1.16073206E-1,-2.2878994E-1,7.6031074E-2,-2.9669225E-3,-3.2208723E-1,-1.5232916E-2,1.3467681E-1,3.8030505E-2,-7.748573E-3,-1.4518753E-1,-1.0010534E-2,-1.0440992E-1,-1.5696679E-1,-3.4923512E-2,-7.7879906E-2,-2.1148731E-1,-4.9341094E-2,1.5911703E-1,-2.985975E-1,-1.0479586E-1,-9.4143905E-2,-1.8424866E-1,-8.9808255E-2,-3.2586095E-1,3.1234244E-1,-1.7705518E-1,2.6943523E-1,-1.0142025E-1],"categories":[],"categories_nodes":[],"categories_segments":[],"categories_sizes":[],"default_left":[0,0,0,0,0,0,0,0,0,0,0,0,0,0,0,0,0,0,0,0,0,0,0,0,0,0,0,0,0,0,0,0,0,0,0,0,0,0,0,0,0,0,0,0,0,0,0,0,0,0,0,0,0,0,0,0,0,0,0,0,0,0,0,0,0,0,0,0,0,0,0,0,0,0,0,0,0,0,0,0,0,0,0,0,0,0,0,0,0,0,0,0,0,0,0,0,0,0,0,0,0,0,0,0,0,0,0,0,0,0,0,0,0,0,0,0,0,0,0,0,0,0,0],"id":3,"left_children":[1,3,5,7,9,11,13,15,17,19,21,23,25,27,29,31,33,35,37,39,41,43,45,47,49,51,53,55,57,59,61,63,-1,65,67,69,71,73,75,77,79,81,83,85,87,89,91,93,95,97,99,101,103,105,107,109,111,113,115,117,119,121,-1,-1,-1,-1,-1,-1,-1,-1,-1,-1,-1,-1,-1,-1,-1,-1,-1,-1,-1,-1,-1,-1,-1,-1,-1,-1,-1,-1,-1,-1,-1,-1,-1,-1,-1,-1,-1,-1,-1,-1,-1,-1,-1,-1,-1,-1,-1,-1,-1,-1,-1,-1,-1,-1,-1,-1,-1,-1,-1,-1,-1],"loss_changes":[2.4026604E1,1.8287292E1,4.8400715E1,2.7520313E0,1.523052E1,2.3010695E1,7.39756E0,1.4885101E0,5.4119563E0,7.912079E0,1.779324E1,1.3901342E1,2.9678055E1,8.148571E0,2.5200977E0,3.2788372E0,3.010552E0,2.5007114E0,3.2132275E0,2.3736095E0,1.1198536E1,3.5420895E1,6.5300484E0,4.239237E0,4.7131624E0,2.7770767E1,1.4628353E1,3.6124773E0,2.682106E0,3.4371777E0,3.2675567E0,3.8336506E0,0E0,4.3628535E0,2.199965E0,5.93956E-1,1.086008E0,2.589481E0,1.9137549E0,3.1255798E0,1.3876609E0,7.0366173E0,5.0847225E0,5.118004E0,1.3532821E1,4.3748584E0,3.7701454E0,1.0990238E-1,4.9572945E0,5.286559E0,4.7070856E0,6.0789986E0,2.4597195E1,1.0728458E1,3.2322998E0,2.2596197E0,4.0070972E0,1.8079987E0,2.9288177E0,1.0521507E-1,4.6001487E0,1.7290058E0,0E0,0E0,0E0,0E0,0E0,0E0,0E0,0E0,0E0,0E0,0E0,0E0,0E0,0E0,0E0,0E0,0E0,0E0,0E0,0E0,0E0,0E0,0E0,0E0,0E0,0E0,0E0,0E0,0E0,0E0,0E0,0E0,0E0,0E0,0E0,0E0,0E0,0E0,0E0,0E0,0E0,0E0,0E0,0E0,0E0,0E0,0E0,0E0,0E0,0E0,0E0,0E0,0E0,0E0,0E0,0E0,0E0,0E0,0E0,0E0,0E0],"parents":[2147483647,0,0,1,1,2,2,3,3,4,4,5,5,6,6,7,7,8,8,9,9,10,10,11,11,12,12,13,13,14,14,15,15,16,16,17,17,18,18,19,19,20,20,21,21,22,22,23,23,24,24,25,25,26,26,27,27,28,28,29,29,30,30,31,31,33,33,34,34,35,35,36,36,37,37,38,38,39,39,40,40,41,41,42,42,43,43,44,44,45,45,46,46,47,47,48,48,49,49,50,50,51,51,52,52,53,53,54,54,55,55,56,56,57,57,58,58,59,59,60,60,61,61],"right_children":[2,4,6,8,10,12,14,16,18,20,22,24,26,28,30,32,34,36,38,40,42,44,46,48,50,52,54,56,58,60,62,64,-1,66,68,70,72,74,76,78,80,82,84,86,88,90,92,94,96,98,100,102,104,106,108,110,112,114,116,118,120,122,-1,-1,-1,-1,-1,-1,-1,-1,-1,-1,-1,-1,-1,-1,-1,-1,-1,-1,-1,-1,-1,-1,-1,-1,-1,-1,-1,-1,-1,-1,-1,-1,-1,-1,-1,-1,-1,-1,-1,-1,-1,-1,-1,-1,-1,-1,-1,-1,-1,-1,-1,-1,-1,-1,-1,-1,-1,-1,-1,-1,-1],"split_conditions":[-4.0600836E-2,2.3308305E-1,3.350437E-2,-1.9107562E-1,-2.367375E0,3.2982162E-1,5.400304E-1,6.9987917E-1,-1.2597615E0,2.3431249E0,1.7365063E0,-3.9135838E-1,-5.355719E-1,2.2026911E-1,1.0250369E0,5.416473E-1,1.2754258E0,-1.1532131E-1,-1.1032684E0,9.033201E-1,-2.9841526E0,-1.6731749E0,-2.0259717E0,2.0683618E-2,6.303267E-1,8.8905835E-1,6.4395034E-1,1.1543295E-2,-9.2590964E-1,1.5517594E-1,7.4452376E-1,5.294756E-1,2.9905665E-1,5.893895E-2,-2.4899556E-1,-6.085248E-2,-1.9744129E0,1.6378028E-2,-1.2473183E-1,-4.1296023E-1,1.1484926E0,1.3884485E0,1.0528579E0,6.424984E-1,9.360475E-1,-1.3606125E0,-1.0076338E0,-5.9763443E-1,2.1413538E0,1.92695E-1,6.651029E-1,-1.1923981E0,-9.5524746E-1,-2.2611833E-1,9.033201E-1,2.925756E-1,5.0351584E-1,4.0817738E-1,4.1474983E-1,-1.7309793E0,-9.119991E-1,1.16313346E-1,-2.715703E-1,1.1932484E-1,-2.8995883E-1,1.0940751E-1,-1.0564965E-1,-1.7536332E-1,1.5382838E-1,1.2533773E-1,3.2490802E-1,-6.535829E-2,1.2511784E-1,8.927679E-2,-2.3335288E-1,6.6477344E-3,7.471346E-2,1.4099634E-1,3.2122165E-1,-1.2373266E-1,1.1137957E-1,7.782616E-2,2.9350147E-1,-3.5325962E-3,-2.2437511E-1,2.4680074E-1,7.9909384E-2,2.015378E-2,-4.652903E-2,-2.3197421E-1,-6.754845E-3,-4.8879515E-2,-2.1522364E-1,8.7712735E-2,3.2716614E-1,1.16073206E-1,-2.2878994E-1,7.6031074E-2,-2.9669225E-3,-3.2208723E-1,-1.5232916E-2,1.3467681E-1,3.8030505E-2,-7.748573E-3,-1.4518753E-1,-1.0010534E-2,-1.0440992E-1,-1.5696679E-1,-3.4923512E-2,-7.7879906E-2,-2.1148731E-1,-4.9341094E-2,1.5911703E-1,-2.985975E-1,-1.0479586E-1,-9.4143905E-2,-1.8424866E-1,-8.9808255E-2,-3.2586095E-1,3.1234244E-1,-1.7705518E-1,2.6943523E-1,-1.0142025E-1],"split_indices":[2,3,3,2,2,2,3,0,0,3,3,3,3,2,0,0,0,2,0,0,2,2,2,2,0,2,2,2,0,2,3,0,0,3,3,3,0,3,2,0,0,0,0,0,3,0,0,3,0,2,0,3,3,3,0,3,3,2,2,0,0,2,0,0,0,0,0,0,0,0,0,0,0,0,0,0,0,0,0,0,0,0,0,0,0,0,0,0,0,0,0,0,0,0,0,0,0,0,0,0,0,0,0,0,0,0,0,0,0,0,0,0,0,0,0,0,0,0,0,0,0,0,0],"split_type":[0,0,0,0,0,0,0,0,0,0,0,0,0,0,0,0,0,0,0,0,0,0,0,0,0,0,0,0,0,0,0,0,0,0,0,0,0,0,0,0,0,0,0,0,0,0,0,0,0,0,0,0,0,0,0,0,0,0,0,0,0,0,0,0,0,0,0,0,0,0,0,0,0,0,0,0,0,0,0,0,0,0,0,0,0,0,0,0,0,0,0,0,0,0,0,0,0,0,0,0,0,0,0,0,0,0,0,0,0,0,0,0,0,0,0,0,0,0,0,0,0,0,0],"sum_hessian":[5.3298506E3,2.0503538E3,3.2794966E3,3.8315646E2,1.6671974E3,2.8255269E3,4.539697E2,1.9445888E2,1.8869759E2,1.9358243E2,1.473615E3,6.151933E2,2.2103335E3,4.1446646E2,3.9503235E1,1.326696E2,6.1789276E1,2.6935547E1,1.6176204E2,5.0824734E1,1.427577E2,1.3433116E3,1.3030334E2,1.748451E2,4.403482E2,1.5436263E3,6.667072E2,2.4502078E2,1.6944568E2,3.4474022E1,5.029211E0,1.2396361E2,8.705995E0,3.1979029E1,2.9810246E1,1.206642E1,1.4869126E1,8.520518E0,1.5324152E2,3.9364254E1,1.1460479E1,8.4707886E1,5.8049816E1,8.371141E1,1.2596002E3,6.602232E1,6.428102E1,9.331487E0,1.6551361E2,3.0864758E2,1.317006E2,8.009877E2,7.426387E2,4.870199E2,1.7968729E2,5.0808537E1,1.9421225E2,2.351148E1,1.4593419E2,2.4172726E1,1.0301298E1,3.1986933E0,1.8305175E0,1.2279057E2,1.1730382E0,1.6375574E1,1.56034565E1,1.1358116E0,2.8674433E1,3.7282376E0,8.3381815E0,2.714656E0,1.215447E1,2.6809149E0,5.839604E0,6.318733E1,9.005419E1,2.2173534E1,1.7190718E1,1.9931267E0,9.467352E0,6.826459E1,1.6443296E1,4.733676E1,1.0713057E1,5.912766E1,2.4583752E1,8.5859546E2,4.0100473E2,7.972507E0,5.8049816E1,1.7440395E1,4.6840626E1,1.0899839E0,8.241503E0,1.6257082E2,2.9427857E0,1.7320123E2,1.3544635E2,3.66943E0,1.2803119E2,6.287976E1,7.381079E2,5.978286E2,1.4481007E2,3.253879E2,1.6163199E2,1.5663303E2,2.305427E1,3.2231983E1,1.8576553E1,1.8648802E2,7.724221E0,1.5571852E1,7.9396286E0,9.220385E1,5.3730343E1,1.095947E0,2.3076778E1,1.1389307E0,9.162367E0,2.0734909E0,1.1252024E0],"tree_param":{"num_deleted":"0","num_feature":"4","num_nodes":"123","size_leaf_vector":"1"}},{"base_weights":[-7.701133E-4,1.0246036E-1,-2.7709488E-2,3.21587E-1,4.1057903E-2,-4.512435E-3,-2.4833912E-1,2.3951961E-1,4.77083E-1,1.2270384E-1,-1.5539636E-1,8.624963E-2,-4.9929157E-2,-3.341215E-1,-8.546826E-2,2.8982392E-1,-3.5426024E-1,5.79255E-1,-1.8206988E-2,4.3784714E-1,3.8501173E-2,-2.2243702E-1,6.9734335E-2,2.8972697E-1,3.9853033E-2,8.364288E-3,-2.2136493E-1,-2.842161E-1,-7.368288E-1,5.5043703E-1,-1.3696502E-1,3.505012E-1,5.8965688E-3,2.5665373E-1,-6.101581E-1,4.733892E-1,1.0807893E0,4.2445698E-1,-2.2044137E-1,-4.0392172E-1,4.713645E-1,1.3036938E-1,-2.2303063E-1,-1.7089617E-1,-1.0239873E0,2.3221768E-1,-3.5970506E-1,2.4454847E-1,5.011247E-1,1.8360372E-1,-3.364284E-2,8.287565E-2,-8.656918E-2,-1.9397716E-1,-5.809928E-1,-2.4467658E-1,-7.9925483E-1,-1.0580204E0,-3.6815202E-1,-1.5276524E-1,9.1785896E-1,-5.5824137E-1,-8.607075E-2,1.227917E-1,3.3174276E-2,-3.306037E-1,4.8375536E-2,-4.3014262E-2,2.337879E-1,-4.401447E-2,-3.012696E-1,2.464719E-1,9.451877E-2,3.8513342E-1,-4.4646766E-2,1.8102428E-1,-2.9343028E-2,1.0819724E-1,-1.1455543E-1,-2.9064387E-1,1.5793364E-2,2.7705038E-1,1.2321325E-1,1.501562E-1,1.6437564E-2,-4.3009177E-2,-2.6911387E-1,-5.968562E-2,2.661172E-1,-3.3738422E-1,-5.8100868E-2,5.015867E-3,1.4206396E-1,8.292098E-2,-2.5218055E-1,1.10085405E-1,2.4637595E-2,1.0731311E-1,2.4585098E-1,6.682238E-2,-2.6443947E-2,1.4884342E-2,-5.035144E-2,4.7608353E-2,-1.344587E-3,7.943682E-3,-8.064806E-2,-2.4503313E-2,-9.459358E-2,-1.8715014E-1,1.4578462E-1,-2.0134489E-1,-6.474037E-2,-1.01101436E-1,-3.467049E-1,-3.2943454E-1,-9.817907E-2,2.4765863E-1,-1.8969516E-1,3.463191E-1,2.065773E-2,-3.7992238E-3,-2.7157936E-1,1.8870035E-1,-3.5634894E-2],"categories":[],"categories_nodes":[],"categories_segments":[],"categories_sizes":[],"default_left":[0,0,0,0,0,0,0,0,0,0,0,0,0,0,0,0,0,0,0,0,0,0,0,0,0,0,0,0,0,0,0,0,0,0,0,0,0,0,0,0,0,0,0,0,0,0,0,0,0,0,0,0,0,0,0,0,0,0,0,0,0,0,0,0,0,0,0,0,0,0,0,0,0,0,0,0,0,0,0,0,0,0,0,0,0,0,0,0,0,0,0,0,0,0,0,0,0,0,0,0,0,0,0,0,0,0,0,0,0,0,0,0,0,0,0,0,0,0,0,0,0,0,0,0,0],"id":4,"left_children":[1,3,5,7,9,11,13,15,17,19,21,23,25,27,29,31,33,35,37,39,41,43,45,47,49,51,53,55,57,59,61,63,65,67,69,71,73,75,77,79,81,83,85,87,89,91,93,95,97,99,101,103,105,107,109,111,113,115,117,-1,119,121,123,-1,-1,-1,-1,-1,-1,-1,-1,-1,-1,-1,-1,-1,-1,-1,-1,-1,-1,-1,-1,-1,-1,-1,-1,-1,-1,-1,-1,-1,-1,-1,-1,-1,-1,-1,-1,-1,-1,-1,-1,-1,-1,-1,-1,-1,-1,-1,-1,-1,-1,-1,-1,-1,-1,-1,-1,-1,-1,-1,-1,-1,-1],"loss_changes":[1.4673258E1,1.4679093E1,2.1414118E1,2.9339104E0,1.3718593E1,1.56158495E1,5.5330353E0,4.8327045E0,4.1352596E0,1.6008419E1,3.8067336E0,1.1916251E1,2.5233799E1,5.0238247E0,4.6165085E0,2.5224743E0,2.160438E0,3.0776176E0,1.4281853E0,3.7802925E0,1.1505805E1,7.8310995E0,4.158427E0,2.1164818E0,1.088834E1,1.3341735E1,6.197859E0,4.555706E0,2.936018E0,4.5896893E0,2.7195973E0,1.6578827E0,4.7938E0,1.0500524E0,1.5565934E0,2.9163055E0,2.9373446E0,5.2791977E-1,1.1592743E0,1.4465241E0,2.9891071E0,9.87936E0,6.55887E0,5.616721E0,7.437134E-1,2.2270963E0,5.2561517E0,3.8488722E0,1.5481977E0,3.7273703E0,7.632579E0,6.9993863E0,1.7096891E1,8.107027E0,2.3527002E0,2.5412083E0,2.2784996E0,6.472397E-2,5.1285944E0,0E0,1.5710001E0,2.5882864E0,2.7964E0,0E0,0E0,0E0,0E0,0E0,0E0,0E0,0E0,0E0,0E0,0E0,0E0,0E0,0E0,0E0,0E0,0E0,0E0,0E0,0E0,0E0,0E0,0E0,0E0,0E0,0E0,0E0,0E0,0E0,0E0,0E0,0E0,0E0,0E0,0E0,0E0,0E0,0E0,0E0,0E0,0E0,0E0,0E0,0E0,0E0,0E0,0E0,0E0,0E0,0E0,0E0,0E0,0E0,0E0,0E0,0E0,0E0,0E0,0E0,0E0,0E0,0E0],"parents":[2147483647,0,0,1,1,2,2,3,3,4,4,5,5,6,6,7,7,8,8,9,9,10,10,11,11,12,12,13,13,14,14,15,15,16,16,17,17,18,18,19,19,20,20,21,21,22,22,23,23,24,24,25,25,26,26,27,27,28,28,29,29,30,30,31,31,32,32,33,33,34,34,35,35,36,36,37,37,38,38,39,39,40,40,41,41,42,42,43,43,44,44,45,45,46,46,47,47,48,48,49,49,50,50,51,51,52,52,53,53,54,54,55,55,56,56,57,57,58,58,60,60,61,61,62,62],"right_children":[2,4,6,8,10,12,14,16,18,20,22,24,26,28,30,32,34,36,38,40,42,44,46,48,50,52,54,56,58,60,62,64,66,68,70,72,74,76,78,80,82,84,86,88,90,92,94,96,98,100,102,104,106,108,110,112,114,116,118,-1,120,122,124,-1,-1,-1,-1,-1,-1,-1,-1,-1,-1,-1,-1,-1,-1,-1,-1,-1,-1,-1,-1,-1,-1,-1,-1,-1,-1,-1,-1,-1,-1,-1,-1,-1,-1,-1,-1,-1,-1,-1,-1,-1,-1,-1,-1,-1,-1,-1,-1,-1,-1,-1,-1,-1,-1,-1,-1,-1,-1,-1,-1,-1,-1],"split_conditions":[-6.069408E-1,7.998055E-1,4.6651155E-1,5.764235E-1,-1.1912616E0,2.4134913E-1,5.5208015E-1,3.9906475E-1,1.734472E0,1.3243043E0,1.0250369E0,-2.2611833E-1,-3.6586234E-1,6.022729E-2,6.303267E-1,7.2796655E-1,4.786207E-1,1.485822E0,4.9208847E-1,-1.8613902E0,-1.7392722E0,8.424617E-1,1.8718381E0,-2.671451E-1,-1.822429E-1,8.4955E-1,2.2496587E-1,1.0315863E0,1.5517594E-1,5.169689E-1,7.4161065E-1,-6.6340727E-1,-1.7744496E0,3.9746734E-1,-8.8285303E-1,-8.8285303E-1,7.4452376E-1,-7.3875284E-1,-1.04769E0,-1.4625745E0,-1.6731749E0,1.7365063E0,1.485822E0,7.7812564E-1,-7.3875284E-1,1.0562352E0,9.838479E-1,-3.827897E-1,9.798278E-1,4.0900356E-1,1.4927804E-1,-6.590721E-1,-1.1342742E0,4.4628E-1,6.948427E-1,-1.9744129E0,-4.4008848E-1,4.3210217E-1,-8.6679006E-1,-1.5276524E-1,-2.5714737E-1,-4.010523E-1,7.7812564E-1,1.227917E-1,3.3174276E-2,-3.306037E-1,4.8375536E-2,-4.3014262E-2,2.337879E-1,-4.401447E-2,-3.012696E-1,2.464719E-1,9.451877E-2,3.8513342E-1,-4.4646766E-2,1.8102428E-1,-2.9343028E-2,1.0819724E-1,-1.1455543E-1,-2.9064387E-1,1.5793364E-2,2.7705038E-1,1.2321325E-1,1.501562E-1,1.6437564E-2,-4.3009177E-2,-2.6911387E-1,-5.968562E-2,2.661172E-1,-3.3738422E-1,-5.8100868E-2,5.015867E-3,1.4206396E-1,8.292098E-2,-2.5218055E-1,1.10085405E-1,2.4637595E-2,1.0731311E-1,2.4585098E-1,6.682238E-2,-2.6443947E-2,1.4884342E-2,-5.035144E-2,4.7608353E-2,-1.344587E-3,7.943682E-3,-8.064806E-2,-2.4503313E-2,-9.459358E-2,-1.8715014E-1,1.4578462E-1,-2.0134489E-1,-6.474037E-2,-1.01101436E-1,-3.467049E-1,-3.2943454E-1,-9.817907E-2,2.4765863E-1,-1.8969516E-1,3.463191E-1,2.065773E-2,-3.7992238E-3,-2.7157936E-1,1.8870035E-1,-3.5634894E-2],"split_indices":[2,3,3,0,2,2,0,0,0,3,0,3,3,2,0,3,3,0,3,0,2,0,0,3,2,2,3,3,2,3,0,2,0,3,2,2,3,2,2,2,2,3,0,0,2,3,3,3,0,3,3,3,3,2,2,0,2,0,0,0,2,2,0,0,0,0,0,0,0,0,0,0,0,0,0,0,0,0,0,0,0,0,0,0,0,0,0,0,0,0,0,0,0,0,0,0,0,0,0,0,0,0,0,0,0,0,0,0,0,0,0,0,0,0,0,0,0,0,0,0,0,0,0,0,0],"split_type":[0,0,0,0,0,0,0,0,0,0,0,0,0,0,0,0,0,0,0,0,0,0,0,0,0,0,0,0,0,0,0,0,0,0,0,0,0,0,0,0,0,0,0,0,0,0,0,0,0,0,0,0,0,0,0,0,0,0,0,0,0,0,0,0,0,0,0,0,0,0,0,0,0,0,0,0,0,0,0,0,0,0,0,0,0,0,0,0,0,0,0,0,0,0,0,0,0,0,0,0,0,0,0,0,0,0,0,0,0,0,0,0,0,0,0,0,0,0,0,0,0,0,0,0,0],"sum_hessian":[5.2742993E3,1.0909653E3,4.183334E3,2.37864E2,8.531014E2,3.7862654E3,3.9706842E2,1.5735556E2,8.050844E1,6.029091E2,2.5019225E2,1.2624502E3,2.5238152E3,2.5939587E2,1.3767255E2,1.4553767E2,1.1817879E1,6.660016E1,1.3908284E1,1.262387E2,4.7667044E2,1.9279318E2,5.7399055E1,2.3343794E2,1.0290122E3,1.8841107E3,6.3970447E2,2.323124E2,2.7083475E1,9.587911E0,1.2808464E2,1.1971851E2,2.5819164E1,3.48797E0,8.329908E0,5.6597275E1,1.0002883E1,4.0169287E0,9.8913555E0,4.4108815E0,1.2182782E2,3.5312857E2,1.2354186E2,1.822852E2,1.0507994E1,4.197615E1,1.5422907E1,1.9411073E2,3.9327213E1,3.4761444E2,6.8139777E2,1.0556665E3,8.284442E2,5.9586523E2,4.3839245E1,2.171192E2,1.5193184E1,1.3474606E1,1.360887E1,2.3691885E0,7.218722E0,1.273147E1,1.1535317E2,9.55847E1,2.4133814E1,2.4258466E0,2.3393318E1,2.3867679E0,1.1012021E0,4.458673E0,3.8712354E0,1.6381914E1,4.021536E1,8.54774E0,1.4551425E0,2.8760586E0,1.14087E0,1.8818856E0,8.009469E0,1.4700693E0,2.940812E0,1.2727341E1,1.0910048E2,5.89229E1,2.942057E2,1.115676E2,1.1974268E1,1.7836702E2,3.9181726E0,9.056048E0,1.4519457E0,2.2739689E1,1.9236462E1,6.8229938E0,8.599914E0,1.0997433E2,8.4136406E1,2.857781E1,1.0749403E1,3.0401102E2,4.3603413E1,4.208961E2,2.6050168E2,5.647209E2,4.9094562E2,5.1182907E2,3.1661514E2,3.1032346E2,2.8554178E2,4.2546192E1,1.2930534E0,1.2357836E1,2.0476137E2,7.461675E0,7.731509E0,1.2297183E1,1.1774228E0,2.080896E0,1.1527973E1,5.3644342E0,1.8542876E0,5.3526773E0,7.3787932E0,4.2487783E0,1.1110439E2],"tree_param":{"num_deleted":"0","num_feature":"4","num_nodes":"125","size_leaf_vector":"1"}},{"base_weights":[-6.78163E-4,2.0086363E-1,-8.374834E-3,4.1728476E-1,8.2398795E-2,-1.9510898E-3,-2.4806371E-1,9.4139844E-1,3.039297E-1,2.629424E-1,-2.56481E-1,2.9009545E-1,-1.0005927E-2,-1.060786E-1,-3.9000118E-1,2.344832E-2,1.0364702E0,4.6670038E-1,1.2973765E-1,1.4595927E-1,6.948699E-1,-6.965264E-1,-1.5867811E-1,6.694097E-1,2.2111839E-1,-4.3817433E-3,-3.0009246E-1,1.7966916E-1,-2.3522024E-1,-1.0359053E-1,-4.9259755E-1,3.3656475E-1,1.15361355E-1,-4.6028983E-2,6.396176E-1,-2.9005253E-1,3.788701E-1,2.2124746E-1,-5.5524725E-1,8.853668E-1,1.6379505E-1,-2.8926632E-1,-3.5112664E-1,2.9692572E-1,-2.601153E-1,2.953537E-1,4.5821846E-1,-3.4315073E-1,2.5828052E-1,1.0929641E-1,-1.9208528E-2,-2.2219938E-1,-8.0224025E-1,-6.943835E-2,3.6460915E-1,-7.746732E-1,-1.3658491E-1,-4.4473177E-1,5.203801E-1,-9.3275315E-1,-3.7758625E-1,1.4185819E-1,-1.144045E-1,2.3044077E-1,2.3057168E-2,8.237176E-3,-3.0622423E-1,2.956111E-1,2.2920767E-2,1.9707389E-1,1.0300468E-2,-3.1521153E-1,-5.105987E-2,4.0265614E-1,1.5122809E-1,1.975772E-1,-1.3780451E-1,-2.2665973E-1,5.8010746E-2,-1.6499232E-1,-1.1208506E-2,3.7680242E-2,2.4157433E-1,-2.5363928E-1,1.2112228E-1,1.2735808E-1,2.5327388E-2,1.0490095E-1,1.6139254E-2,-9.6467265E-4,-5.2077148E-2,-9.388315E-2,8.2221E-2,1.596438E-1,-3.1306508E-1,1.1530344E-1,-1.1188608E-1,1.7749575E-1,-6.4603634E-2,-8.051358E-2,-2.769943E-1,1.6973636E-1,-7.017629E-2,-3.3389693E-1,5.7625998E-2,-7.690373E-2,2.2014536E-1,-3.8150692E-1,-1.5115264E-1,4.1390844E-3,-1.8493554E-1],"categories":[],"categories_nodes":[],"categories_segments":[],"categories_sizes":[],"default_left":[0,0,0,0,0,0,0,0,0,0,0,0,0,0,0,0,0,0,0,0,0,0,0,0,0,0,0,0,0,0,0,0,0,0,0,0,0,0,0,0,0,0,0,0,0,0,0,0,0,0,0,0,0,0,0,0,0,0,0,0,0,0,0,0,0,0,0,0,0,0,0,0,0,0,0,0,0,0,0,0,0,0,0,0,0,0,0,0,0,0,0,0,0,0,0,0,0,0,0,0,0,0,0,0,0,0,0,0,0,0,0],"id":5,"left_children":[1,3,5,7,9,11,13,15,17,19,21,23,25,27,29,-1,31,33,35,37,39,41,43,45,47,49,51,53,55,57,59,-1,-1,61,63,65,67,69,71,73,75,77,-1,-1,79,-1,81,83,85,87,89,91,93,95,97,99,101,103,105,107,109,-1,-1,-1,-1,-1,-1,-1,-1,-1,-1,-1,-1,-1,-1,-1,-1,-1,-1,-1,-1,-1,-1,-1,-1,-1,-1,-1,-1,-1,-1,-1,-1,-1,-1,-1,-1,-1,-1,-1,-1,-1,-1,-1,-1,-1,-1,-1,-1,-1,-1],"loss_changes":[8.099913E0,4.8901267E0,7.7435045E0,3.736023E0,7.7382674E0,1.1527896E1,2.6040592E0,8.6785316E-1,1.5595236E0,4.056597E0,1.7867937E0,3.293376E0,7.7788887E0,2.514554E0,1.8669424E0,0E0,1.4397717E-1,2.6141071E0,3.1413422E0,3.6081686E0,1.6023417E0,1.1516645E0,4.610064E0,8.6285305E-1,2.453703E0,7.88857E0,3.368699E0,1.0121691E0,2.3724363E0,4.165298E0,2.0670853E0,0E0,0E0,1.6218702E0,1.5225363E0,2.6640139E0,3.341244E0,4.8904495E0,1.0967078E0,1.4979725E0,2.0867624E0,1.3795124E0,0E0,0E0,2.2472496E0,0E0,1.4793522E0,3.117062E0,3.0390887E0,7.1852407E0,1.0221311E1,3.6834316E0,4.3532014E0,1.5161002E0,1.7672492E0,2.7790976E-1,2.9073322E0,5.527976E0,1.3474768E0,6.996641E-1,3.7078142E0,0E0,0E0,0E0,0E0,0E0,0E0,0E0,0E0,0E0,0E0,0E0,0E0,0E0,0E0,0E0,0E0,0E0,0E0,0E0,0E0,0E0,0E0,0E0,0E0,0E0,0E0,0E0,0E0,0E0,0E0,0E0,0E0,0E0,0E0,0E0,0E0,0E0,0E0,0E0,0E0,0E0,0E0,0E0,0E0,0E0,0E0,0E0,0E0,0E0,0E0],"parents":[2147483647,0,0,1,1,2,2,3,3,4,4,5,5,6,6,7,7,8,8,9,9,10,10,11,11,12,12,13,13,14,14,16,16,17,17,18,18,19,19,20,20,21,21,22,22,23,23,24,24,25,25,26,26,27,27,28,28,29,29,30,30,33,33,34,34,35,35,36,36,37,37,38,38,39,39,40,40,41,41,44,44,46,46,47,47,48,48,49,49,50,50,51,51,52,52,53,53,54,54,55,55,56,56,57,57,58,58,59,59,60,60],"right_children":[2,4,6,8,10,12,14,16,18,20,22,24,26,28,30,-1,32,34,36,38,40,42,44,46,48,50,52,54,56,58,60,-1,-1,62,64,66,68,70,72,74,76,78,-1,-1,80,-1,82,84,86,88,90,92,94,96,98,100,102,104,106,108,110,-1,-1,-1,-1,-1,-1,-1,-1,-1,-1,-1,-1,-1,-1,-1,-1,-1,-1,-1,-1,-1,-1,-1,-1,-1,-1,-1,-1,-1,-1,-1,-1,-1,-1,-1,-1,-1,-1,-1,-1,-1,-1,-1,-1,-1,-1,-1,-1,-1,-1],"split_conditions":[-2.367375E0,2.4465547E0,1.7365063E0,-2.8163176E0,-2.9841526E0,-1.5177767E0,-2.0259717E0,-1.3171422E0,2.1599207E0,1.3432394E0,-1.2232463E0,1.2319542E0,1.3243043E0,1.937636E0,-1.0076338E0,2.344832E-2,8.615886E-1,-2.567164E0,-4.4425884E-1,9.798278E-1,-3.5272667E0,-1.5901356E0,-1.070231E0,-1.6731749E0,-2.168964E0,-6.069408E-1,1.458001E0,-7.563079E-2,-1.3606125E0,1.937636E0,-4.8946792E-1,3.3656475E-1,1.15361355E-1,-6.9986415E-1,1.2215226E0,-2.46819E0,2.808256E-1,2.8844883E0,1.0389473E0,1.8718381E0,2.8844883E0,-1.9744129E0,-3.5112664E-1,2.9692572E-1,1.6606401E-1,2.953537E-1,1.3048598E-2,3.6602733E-1,-1.7392722E0,5.6939495E-1,4.6651155E-1,9.954771E-1,1.361508E0,-2.168964E0,1.4319187E0,2.0748222E0,-9.7633517E-1,-1.7392722E0,-1.8613902E0,-1.866454E0,-1.866454E0,1.4185819E-1,-1.144045E-1,2.3044077E-1,2.3057168E-2,8.237176E-3,-3.0622423E-1,2.956111E-1,2.2920767E-2,1.9707389E-1,1.0300468E-2,-3.1521153E-1,-5.105987E-2,4.0265614E-1,1.5122809E-1,1.975772E-1,-1.3780451E-1,-2.2665973E-1,5.8010746E-2,-1.6499232E-1,-1.1208506E-2,3.7680242E-2,2.4157433E-1,-2.5363928E-1,1.2112228E-1,1.2735808E-1,2.5327388E-2,1.0490095E-1,1.6139254E-2,-9.6467265E-4,-5.2077148E-2,-9.388315E-2,8.2221E-2,1.596438E-1,-3.1306508E-1,1.1530344E-1,-1.1188608E-1,1.7749575E-1,-6.4603634E-2,-8.051358E-2,-2.769943E-1,1.6973636E-1,-7.017629E-2,-3.3389693E-1,5.7625998E-2,-7.690373E-2,2.2014536E-1,-3.8150692E-1,-1.5115264E-1,4.1390844E-3,-1.8493554E-1],"split_indices":[2,3,3,2,2,2,2,0,3,0,0,3,3,3,0,0,0,2,0,0,2,0,0,2,2,2,0,0,0,3,0,0,0,0,0,2,0,3,0,0,3,0,0,0,0,0,0,0,2,3,3,0,3,2,0,3,0,2,0,2,2,0,0,0,0,0,0,0,0,0,0,0,0,0,0,0,0,0,0,0,0,0,0,0,0,0,0,0,0,0,0,0,0,0,0,0,0,0,0,0,0,0,0,0,0,0,0,0,0,0,0],"split_type":[0,0,0,0,0,0,0,0,0,0,0,0,0,0,0,0,0,0,0,0,0,0,0,0,0,0,0,0,0,0,0,0,0,0,0,0,0,0,0,0,0,0,0,0,0,0,0,0,0,0,0,0,0,0,0,0,0,0,0,0,0,0,0,0,0,0,0,0,0,0,0,0,0,0,0,0,0,0,0,0,0,0,0,0,0,0,0,0,0,0,0,0,0,0,0,0,0,0,0,0,0,0,0,0,0,0,0,0,0,0,0],"sum_hessian":[5.219619E3,1.9107639E2,5.028543E3,6.6700356E1,1.2437602E2,4.8982754E3,1.3026735E2,1.0561742E1,5.613862E1,8.129102E1,4.3085003E1,1.305318E2,4.7677437E3,6.599628E1,6.427107E1,1.2285756E0,9.333166E0,2.8152643E1,2.7985975E1,6.501917E1,1.6271849E1,6.721437E0,3.6363567E1,1.8745102E1,1.117867E2,4.678061E3,8.9682915E1,2.042072E1,4.5575558E1,1.7480831E1,4.6790237E1,7.614679E0,1.7184871E0,7.2850437E0,2.08676E1,1.0361877E1,1.7624098E1,5.9333084E1,5.686087E0,1.1485035E1,4.7868137E0,4.480958E0,2.240479E0,2.240479E0,3.412309E1,6.052664E0,1.2692439E1,6.3984747E0,1.0538822E2,5.390153E2,4.1390454E3,7.8888275E1,1.0794634E1,8.967012E0,1.1453707E1,5.985571E0,3.958999E1,1.1487543E1,5.9932885E0,8.220348E0,3.856989E1,2.6987247E0,4.586319E0,1.669093E1,4.1766696E0,7.8940773E0,2.4678001E0,5.1132884E0,1.2510809E1,1.7058262E1,4.2274822E1,1.7305483E0,3.955539E0,4.0783315E0,7.406704E0,2.6364806E0,2.1503334E0,1.9915369E0,2.4894211E0,1.41897E1,1.9933388E1,7.1761937E0,5.516245E0,3.7466984E0,2.6517763E0,5.3136047E1,5.225217E1,1.0011273E2,4.389026E2,3.751442E3,3.876038E2,6.7005516E1,1.1882765E1,1.4685677E0,9.326066E0,3.4871264E0,5.4798856E0,8.21679E0,3.2369173E0,1.9951904E0,3.9903808E0,4.232892E0,3.5357098E1,5.2405424E0,6.247001E0,1.2485677E0,4.744721E0,3.4942079E0,4.7261405E0,1.4975177E1,2.3594711E1],"tree_param":{"num_deleted":"0","num_feature":"4","num_nodes":"111","size_leaf_vector":"1"}},{"base_weights":[-2.8803322E-4,2.8758913E-2,-4.9636815E-2,1.6760729E-1,-3.4092495E-4,1.9037886E-2,-1.7994027E-1,1.7801738E-1,-5.7175803E-1,3.723651E-2,-1.081998E-1,4.1751854E-2,-4.5581916E-1,-1.3746478E-1,-3.7664962E-1,7.307214E-1,1.6973357E-1,-3.089949E-1,-3.3652276E-1,1.4763767E-1,1.3138662E-2,4.843665E-3,-1.6877082E-1,1.1821617E-1,-5.8103796E-2,-5.680778E-1,4.6564776E-1,-4.2052586E-2,-2.488453E-1,2.1970962E-1,-4.0587804E-1,-1.4327429E-1,1.0035506E0,1.1339756E-1,2.538804E-1,-1.8585947E-1,4.6161402E-4,-5.5737966E-1,1.6197345E-1,4.343388E-2,-9.961452E-2,-1.6791092E-1,6.934046E-2,-1.5830334E-1,-3.036859E-1,5.6424733E-2,2.90487E-1,6.658308E-2,-1.7938985E-1,-4.5520023E-1,-3.460321E-1,7.283683E-1,-6.302545E-2,-1.0064207E0,-2.2212876E-2,-2.1097028E-1,-5.816111E-1,-2.3273192E-1,5.890495E-1,-5.577442E-1,-3.2762322E-1,-2.8733073E-2,3.7211302E-1,1.3634747E-1,2.283754E-2,1.6761883E-1,5.0924495E-2,-1.2815428E-1,1.0842409E-1,-5.6175128E-2,-2.6564756E-1,1.0146553E-1,4.087781E-2,6.1743725E-2,4.034036E-3,-2.6423323E-1,-2.7058251E-2,-1.6823478E-2,-1.786314E-1,6.1228473E-2,-3.4282543E-2,-1.500951E-1,-4.1047227E-2,3.1972088E-2,-3.874921E-2,1.4840859E-1,4.789673E-2,-2.518995E-1,2.9625744E-2,-6.80107E-2,6.887589E-2,-1.5068525E-1,2.0357229E-1,3.7270847E-1,5.6418806E-2,-3.604179E-1,-1.0855382E-1,-1.9935245E-2,5.4803647E-2,-4.8220646E-2,-1.07390635E-1,1.8312213E-1,-1.9854875E-1,-4.548634E-2,2.862176E-1,-7.358332E-2,-2.2158499E-1,6.581483E-2,-1.19657665E-1],"categories":[],"categories_nodes":[],"categories_segments":[],"categories_sizes":[],"default_left":[0,0,0,0,0,0,0,0,0,0,0,0,0,0,0,0,0,0,0,0,0,0,0,0,0,0,0,0,0,0,0,0,0,0,0,0,0,0,0,0,0,0,0,0,0,0,0,0,0,0,0,0,0,0,0,0,0,0,0,0,0,0,0,0,0,0,0,0,0,0,0,0,0,0,0,0,0,0,0,0,0,0,0,0,0,0,0,0,0,0,0,0,0,0,0,0,0,0,0,0,0,0,0,0,0,0,0,0,0],"id":6,"left_children":[1,3,5,7,9,11,13,15,17,19,21,23,25,27,29,31,33,35,-1,37,39,41,43,45,47,49,51,53,55,57,59,-1,61,63,65,-1,67,69,71,73,75,77,79,81,-1,83,85,87,89,91,-1,93,-1,95,97,99,101,-1,103,105,107,-1,-1,-1,-1,-1,-1,-1,-1,-1,-1,-1,-1,-1,-1,-1,-1,-1,-1,-1,-1,-1,-1,-1,-1,-1,-1,-1,-1,-1,-1,-1,-1,-1,-1,-1,-1,-1,-1,-1,-1,-1,-1,-1,-1,-1,-1,-1,-1],"loss_changes":[7.4616957E0,1.32397175E1,1.726264E1,4.4717293E0,1.0987863E1,1.3651846E1,5.5109196E0,2.4428425E0,8.2690096E-1,5.346987E0,4.7969856E0,9.22406E0,6.2417326E0,5.824977E0,2.1399784E0,3.1086655E0,2.5958376E0,6.60975E-1,0E0,3.7300768E0,5.645389E0,2.7453675E0,3.8669748E0,7.264553E0,7.939001E0,2.908062E0,1.3645712E0,5.659317E0,3.067895E0,2.7166123E0,1.1543579E0,0E0,1.8968E0,4.204562E0,5.5789185E0,0E0,8.4017855E-1,7.331233E-1,1.5569887E0,6.3388357E0,2.4964948E0,3.169539E0,4.4612236E0,3.2498589E0,0E0,4.710655E0,4.738826E0,7.6393642E0,5.198758E0,2.7542953E0,0E0,1.1932135E0,0E0,3.1474638E-1,2.6587913E0,1.6324043E0,2.8231878E0,0E0,1.5102232E0,1.9006844E0,3.0751724E0,0E0,0E0,0E0,0E0,0E0,0E0,0E0,0E0,0E0,0E0,0E0,0E0,0E0,0E0,0E0,0E0,0E0,0E0,0E0,0E0,0E0,0E0,0E0,0E0,0E0,0E0,0E0,0E0,0E0,0E0,0E0,0E0,0E0,0E0,0E0,0E0,0E0,0E0,0E0,0E0,0E0,0E0,0E0,0E0,0E0,0E0,0E0,0E0],"parents":[2147483647,0,0,1,1,2,2,3,3,4,4,5,5,6,6,7,7,8,8,9,9,10,10,11,11,12,12,13,13,14,14,15,15,16,16,17,17,19,19,20,20,21,21,22,22,23,23,24,24,25,25,26,26,27,27,28,28,29,29,30,30,32,32,33,33,34,34,36,36,37,37,38,38,39,39,40,40,41,41,42,42,43,43,45,45,46,46,47,47,48,48,49,49,51,51,53,53,54,54,55,55,56,56,58,58,59,59,60,60],"right_children":[2,4,6,8,10,12,14,16,18,20,22,24,26,28,30,32,34,36,-1,38,40,42,44,46,48,50,52,54,56,58,60,-1,62,64,66,-1,68,70,72,74,76,78,80,82,-1,84,86,88,90,92,-1,94,-1,96,98,100,102,-1,104,106,108,-1,-1,-1,-1,-1,-1,-1,-1,-1,-1,-1,-1,-1,-1,-1,-1,-1,-1,-1,-1,-1,-1,-1,-1,-1,-1,-1,-1,-1,-1,-1,-1,-1,-1,-1,-1,-1,-1,-1,-1,-1,-1,-1,-1,-1,-1,-1,-1],"split_conditions":[4.4628E-1,-2.2611833E-1,-6.590721E-1,2.1413538E0,-9.452817E-3,1.2754258E0,7.9213184E-1,-2.1274283E0,-2.913741E-1,2.3308305E-1,-4.9948834E-2,9.903722E-1,-7.107467E-1,-3.5824555E-1,-1.3849559E0,1.4976392E-3,3.5559446E-1,-5.055125E-1,-3.3652276E-1,-2.0797078E-1,-3.745992E-1,-7.9897636E-1,7.8344584E-1,4.4253504E-1,-1.4283352E0,-8.1638455E-1,-6.815939E-1,-1.5901356E0,1.3164362E-1,-2.038749E0,-3.2775846E-1,-1.4327429E-1,-6.071951E-1,2.0683618E-2,6.303267E-1,-1.8585947E-1,2.2752423E0,-1.2473183E-1,-1.3171422E0,5.6939495E-1,-2.4838848E0,-9.937233E-1,2.5441414E-1,1.1543295E-2,-3.036859E-1,-7.6985586E-1,-1.0277236E0,-1.3397467E0,8.424617E-1,-8.264923E-1,-3.460321E-1,1.4319187E0,-6.302545E-2,-4.7901237E-1,-4.1523156E-1,6.4395034E-1,-1.6909866E0,-2.3273192E-1,8.4955E-1,-7.868047E-1,-1.7474304E-1,-2.8733073E-2,3.7211302E-1,1.3634747E-1,2.283754E-2,1.6761883E-1,5.0924495E-2,-1.2815428E-1,1.0842409E-1,-5.6175128E-2,-2.6564756E-1,1.0146553E-1,4.087781E-2,6.1743725E-2,4.034036E-3,-2.6423323E-1,-2.7058251E-2,-1.6823478E-2,-1.786314E-1,6.1228473E-2,-3.4282543E-2,-1.500951E-1,-4.1047227E-2,3.1972088E-2,-3.874921E-2,1.4840859E-1,4.789673E-2,-2.518995E-1,2.9625744E-2,-6.80107E-2,6.887589E-2,-1.5068525E-1,2.0357229E-1,3.7270847E-1,5.6418806E-2,-3.604179E-1,-1.0855382E-1,-1.9935245E-2,5.4803647E-2,-4.8220646E-2,-1.07390635E-1,1.8312213E-1,-1.9854875E-1,-4.548634E-2,2.862176E-1,-7.358332E-2,-2.2158499E-1,6.581483E-2,-1.19657665E-1],"split_indices":[2,3,3,0,2,0,2,0,3,3,3,2,3,3,0,2,0,3,0,3,2,0,3,0,3,3,3,0,3,0,0,0,3,2,0,0,0,2,0,3,0,0,2,2,0,3,3,0,0,3,0,0,0,3,3,2,0,0,2,0,0,0,0,0,0,0,0,0,0,0,0,0,0,0,0,0,0,0,0,0,0,0,0,0,0,0,0,0,0,0,0,0,0,0,0,0,0,0,0,0,0,0,0,0,0,0,0,0,0],"split_type":[0,0,0,0,0,0,0,0,0,0,0,0,0,0,0,0,0,0,0,0,0,0,0,0,0,0,0,0,0,0,0,0,0,0,0,0,0,0,0,0,0,0,0,0,0,0,0,0,0,0,0,0,0,0,0,0,0,0,0,0,0,0,0,0,0,0,0,0,0,0,0,0,0,0,0,0,0,0,0,0,0,0,0,0,0,0,0,0,0,0,0,0,0,0,0,0,0,0,0,0,0,0,0,0,0,0,0,0,0],"sum_hessian":[5.203483E3,3.2757668E3,1.927716E3,5.667567E2,2.70901E3,1.2629492E3,6.6476666E2,5.5963635E2,7.120321E0,2.0095491E3,6.99461E2,1.2061665E3,5.678282E1,5.4811163E2,1.16655045E2,6.976059E0,5.5266034E2,5.8751884E0,1.2451326E0,3.5912732E2,1.6504218E3,2.4435056E2,4.5511047E2,6.8298663E2,5.231799E2,5.0958282E1,5.824539E0,2.9596008E2,2.5215154E2,5.145822E0,1.11509224E2,1.1467727E0,5.8292866E0,3.324403E2,2.2022E2,2.4323497E0,3.4428387E0,6.4020376E0,3.5272528E2,1.3013751E3,3.4904666E2,6.599082E1,1.7835973E2,4.5070517E2,4.405293E0,5.0365814E2,1.7932848E2,2.581956E2,2.6498428E2,4.421062E1,6.747658E0,4.1378684E0,1.6866709E0,4.963566E0,2.9099652E2,2.2785172E2,2.4299824E1,1.0947388E0,4.051083E0,3.5836136E1,7.567309E1,1.1387731E0,4.690513E0,3.1645618E1,3.007947E2,4.6410927E1,1.7380907E2,1.4918574E0,1.9509811E0,3.7464824E0,2.6555555E0,4.336277E1,3.0936252E2,2.0195204E2,1.0994231E3,3.0569687E0,3.459897E2,5.320469E1,1.2786132E1,1.0280222E2,7.55575E1,2.5315405E1,4.2538977E2,3.968492E2,1.06808914E2,6.894083E1,1.1038765E2,7.9905787E0,2.5020499E2,2.3790758E2,2.7076702E1,4.29826E1,1.2280214E0,1.4546704E0,2.683198E0,3.1476154E0,1.8159506E0,2.3987997E2,5.111653E1,1.7137874E2,5.6472977E1,1.1154333E0,2.318439E1,1.5303438E0,2.5207396E0,1.4002379E1,2.1833757E1,8.479655E0,6.7193436E1],"tree_param":{"num_deleted":"0","num_feature":"4","num_nodes":"109","size_leaf_vector":"1"}},{"base_weights":[-6.88175E-4,-3.4997396E-3,3.3650848E-1,5.2034706E-3,-1.04631536E-1,-4.64088E-2,5.861311E-1,1.12788536E-1,-8.467321E-3,-5.7006065E-2,-5.5810153E-1,2.56827E-1,-6.948481E-1,9.8958755E-1,4.4414148E-1,3.0016273E-1,7.839347E-2,7.210717E-3,-1.33446E-1,4.6762787E-2,-1.456782E-1,-3.657672E-1,-9.082604E-1,-2.548692E-3,2.5176033E-1,-3.197955E-2,-3.7308183E-1,3.39903E-1,1.2165768E-1,-1.8185915E-1,5.9983397E-1,5.2425516E-1,1.1326496E-1,-6.3112044E-1,9.31539E-2,1.0805849E-1,-7.778215E-3,-4.2248467E-1,-1.0027961E-1,-2.844872E-2,4.5321032E-1,1.0188018E-1,-2.5182247E-1,-6.184616E-1,-1.0831094E-2,-5.5265676E-2,-1.0211742E0,2.9196036E-1,-5.7031024E-1,-1.04908094E-1,8.0104485E-2,-2.216517E-1,2.0102288E-1,6.606815E-1,1.1374995E-2,7.453293E-2,2.9516822E-1,-5.322016E-2,1.1367381E-1,9.502216E-2,-3.4795114E-1,9.380651E-2,1.8887734E-2,6.471129E-2,1.864101E-2,6.9380067E-3,-2.2438226E-2,2.4458019E-2,-2.2715391E-1,-7.886586E-3,-6.30985E-2,3.423853E-2,-5.7947464E-2,2.0659499E-1,-8.236634E-2,-2.4193294E-2,1.5138248E-1,-3.85484E-1,-6.881913E-2,-6.976718E-2,-2.568741E-1,3.2991645E-1,-6.732722E-2,-3.2518363E-1,-5.955495E-2,-5.1115204E-2,1.9734652E-1,-4.0813923E-2,-2.3918575E-1,1.2662846E-1,2.749029E-1],"categories":[],"categories_nodes":[],"categories_segments":[],"categories_sizes":[],"default_left":[0,0,0,0,0,0,0,0,0,0,0,0,0,0,0,0,0,0,0,0,0,0,0,0,0,0,0,0,0,0,0,0,0,0,0,0,0,0,0,0,0,0,0,0,0,0,0,0,0,0,0,0,0,0,0,0,0,0,0,0,0,0,0,0,0,0,0,0,0,0,0,0,0,0,0,0,0,0,0,0,0,0,0,0,0,0,0,0,0,0,0],"id":7,"left_children":[1,3,5,7,9,11,13,15,17,19,21,23,25,27,29,31,33,35,37,39,41,43,45,47,-1,49,-1,-1,-1,51,53,55,57,59,61,63,65,67,69,71,73,75,77,79,81,-1,83,85,87,-1,-1,-1,-1,89,-1,-1,-1,-1,-1,-1,-1,-1,-1,-1,-1,-1,-1,-1,-1,-1,-1,-1,-1,-1,-1,-1,-1,-1,-1,-1,-1,-1,-1,-1,-1,-1,-1,-1,-1,-1,-1],"loss_changes":[4.8976407E0,4.5097094E0,4.1104264E0,6.940152E0,8.736298E0,3.6754816E0,1.0461292E0,3.4050741E0,8.205174E0,3.3977132E0,2.2588434E0,1.9428906E0,2.119733E0,3.7838936E-2,2.1555133E0,3.381528E0,4.780353E0,5.6259704E0,4.432111E0,5.2268944E0,5.253651E0,2.3707268E0,8.718939E-1,1.8195668E0,0E0,4.4629687E-1,0E0,0E0,0E0,2.843606E0,5.5782366E-1,4.456977E0,3.624606E0,5.036396E0,2.9137337E0,2.3672523E0,6.713633E0,8.114055E0,3.4145298E0,3.4241333E0,4.7626867E0,4.481895E0,2.9381208E0,1.2200499E0,3.1030667E0,0E0,3.5267162E-1,1.3250656E0,2.5772822E-1,0E0,0E0,0E0,0E0,5.4775524E-1,0E0,0E0,0E0,0E0,0E0,0E0,0E0,0E0,0E0,0E0,0E0,0E0,0E0,0E0,0E0,0E0,0E0,0E0,0E0,0E0,0E0,0E0,0E0,0E0,0E0,0E0,0E0,0E0,0E0,0E0,0E0,0E0,0E0,0E0,0E0,0E0,0E0],"parents":[2147483647,0,0,1,1,2,2,3,3,4,4,5,5,6,6,7,7,8,8,9,9,10,10,11,11,12,12,13,13,14,14,15,15,16,16,17,17,18,18,19,19,20,20,21,21,22,22,23,23,25,25,29,29,30,30,31,31,32,32,33,33,34,34,35,35,36,36,37,37,38,38,39,39,40,40,41,41,42,42,43,43,44,44,46,46,47,47,48,48,53,53],"right_children":[2,4,6,8,10,12,14,16,18,20,22,24,26,28,30,32,34,36,38,40,42,44,46,48,-1,50,-1,-1,-1,52,54,56,58,60,62,64,66,68,70,72,74,76,78,80,82,-1,84,86,88,-1,-1,-1,-1,90,-1,-1,-1,-1,-1,-1,-1,-1,-1,-1,-1,-1,-1,-1,-1,-1,-1,-1,-1,-1,-1,-1,-1,-1,-1,-1,-1,-1,-1,-1,-1,-1,-1,-1,-1,-1,-1],"split_conditions":[3.1434085E0,1.1026192E0,-2.8428817E-1,-9.052645E-1,-1.0144372E0,-9.937233E-1,3.6602733E-1,-7.7463305E-1,6.5859455E-1,-1.5901816E0,4.7383365E-1,-1.3171422E0,3.6052003E0,-3.5272667E0,7.4161065E-1,-1.1018516E0,-7.2420746E-1,-4.6109837E-1,-1.04241E0,7.642152E-1,-4.233931E-1,-1.2083989E-1,-9.705656E-1,-1.5901356E0,2.5176033E-1,-7.4681205E-1,-3.7308183E-1,3.39903E-1,1.2165768E-1,3.6052003E0,-3.5272667E0,-1.2103606E0,-9.9666154E-1,8.154483E-1,-1.3728632E0,3.5737798E-1,9.2881344E-2,-1.3849559E0,-5.79866E-1,-9.823534E-2,1.2754258E0,-5.7988614E-1,-4.0426618E-1,-7.868047E-1,-3.5638124E-2,-5.5265676E-2,-5.9763443E-1,-2.2630556E0,-1.4458143E0,-1.04908094E-1,8.0104485E-2,-2.216517E-1,2.0102288E-1,-4.0004764E0,1.1374995E-2,7.453293E-2,2.9516822E-1,-5.322016E-2,1.1367381E-1,9.502216E-2,-3.4795114E-1,9.380651E-2,1.8887734E-2,6.471129E-2,1.864101E-2,6.9380067E-3,-2.2438226E-2,2.4458019E-2,-2.2715391E-1,-7.886586E-3,-6.30985E-2,3.423853E-2,-5.7947464E-2,2.0659499E-1,-8.236634E-2,-2.4193294E-2,1.5138248E-1,-3.85484E-1,-6.881913E-2,-6.976718E-2,-2.568741E-1,3.2991645E-1,-6.732722E-2,-3.2518363E-1,-5.955495E-2,-5.1115204E-2,1.9734652E-1,-4.0813923E-2,-2.3918575E-1,1.2662846E-1,2.749029E-1],"split_indices":[3,2,0,3,3,0,0,0,2,3,0,0,3,2,0,3,0,3,0,0,0,0,3,0,0,0,0,0,0,3,2,3,3,2,3,2,2,0,3,0,0,0,0,0,0,0,3,0,0,0,0,0,0,2,0,0,0,0,0,0,0,0,0,0,0,0,0,0,0,0,0,0,0,0,0,0,0,0,0,0,0,0,0,0,0,0,0,0,0,0,0],"split_type":[0,0,0,0,0,0,0,0,0,0,0,0,0,0,0,0,0,0,0,0,0,0,0,0,0,0,0,0,0,0,0,0,0,0,0,0,0,0,0,0,0,0,0,0,0,0,0,0,0,0,0,0,0,0,0,0,0,0,0,0,0,0,0,0,0,0,0,0,0,0,0,0,0,0,0,0,0,0,0,0,0,0,0,0,0,0,0,0,0,0,0],"sum_hessian":[5.1637725E3,5.1220537E3,4.171835E1,4.717061E3,4.0499277E2,1.6784801E1,2.4933548E1,5.309999E2,4.186061E3,3.6751987E2,3.747289E1,1.1848095E1,4.9367065E0,4.9367065E0,1.9996841E1,8.115646E1,4.498434E2,3.720307E3,4.6575427E2,1.6956201E2,1.9795786E2,2.5507032E1,1.19658575E1,8.886071E0,2.9620237E0,2.7151885E0,2.2215178E0,3.2088592E0,1.7278472E0,3.9493651E0,1.6047476E1,3.6085052E1,4.5071407E1,8.31663E0,4.4152676E2,4.8059344E2,3.2397136E3,4.6734413E1,4.1901987E2,1.4386954E2,2.5692482E1,5.9418148E1,1.3853972E2,1.4465768E1,1.1041264E1,1.9693315E0,9.996526E0,6.170883E0,2.7151885E0,1.2341766E0,1.4810119E0,2.4683533E0,1.4810119E0,1.432096E1,1.7265153E0,2.351506E1,1.2569991E1,2.1680887E1,2.3390522E1,3.1214871E0,5.1951437E0,5.225385E1,3.8927292E2,1.4260777E2,3.3798566E2,2.2176716E3,1.02204205E3,1.8951736E1,2.7782675E1,2.5129866E2,1.6772119E2,7.728049E1,6.658905E1,1.9452982E1,6.2394996E0,4.143756E1,1.7980585E1,1.7472261E0,1.367925E2,6.2692895E0,8.196479E0,1.1118175E0,9.929446E0,8.992739E0,1.0037868E0,2.9620237E0,3.2088592E0,1.4810119E0,1.2341766E0,8.779142E0,5.541818E0],"tree_param":{"num_deleted":"0","num_feature":"4","num_nodes":"91","size_leaf_vector":"1"}},{"base_weights":[-5.451386E-4,1.220293E-1,-5.183598E-3,3.045097E-1,2.3078244E-2,8.083364E-4,-1.7420734E-1,7.320364E-1,2.1482116E-1,-9.682417E-2,2.597611E-1,3.6908135E-1,-3.4693498E-3,5.2550407E-3,-2.3702072E-1,2.556528E-1,8.8422304E-1,8.122783E-1,1.6421223E-1,-4.867968E-3,-3.3861324E-1,-4.669976E-2,4.65777E-1,5.318898E-1,-6.2605254E-3,2.652001E-3,-1.1881596E-1,4.576279E-1,-1.4996997E-1,-6.8405694E-1,-1.7010067E-1,1.2798372E-1,-2.8716655E-2,2.968758E-1,9.28046E-2,3.1392175E-1,4.3988004E-2,-1.279567E-1,3.433141E-1,8.483068E-1,-1.4984095E-1,-5.7729363E-1,9.282023E-2,1.9387612E-1,-5.5076474E-1,2.3400868E-1,3.1469148E-1,1.19456746E-1,6.472042E-1,-4.835168E-1,2.7948496E-1,4.225569E-1,-4.1088844E-3,-1.792039E-1,8.681199E-2,8.210827E-1,-2.5338286E-1,-2.4408904E-1,3.6190417E-1,-4.4102892E-1,-3.6575866E-1,-4.0703792E-2,-2.9402402E-1,2.974694E-1,-8.267585E-2,3.0016035E-1,3.3909198E-2,3.8301024E-1,-1.3431191E-1,-1.7761801E-1,-1.0481568E-2,1.6256908E-1,-2.1598081E-1,-2.3999204E-1,1.8368766E-1,-4.255164E-3,2.0286927E-1,-8.628269E-3,-2.9367563E-1,-1.6991594E-1,1.4079311E-1,1.4471924E-1,-3.5890746E-1,5.9708033E-2,2.3686995E-1,-2.0263378E-2,-3.2074863E-1,2.0465238E-1,1.209366E-2,5.800329E-2,1.6510569E-1,4.027397E-4,-6.954987E-2,9.77248E-3,-8.08492E-2,1.1168348E-1,-8.857203E-2,2.1886382E-2,2.837408E-1,-1.5971114E-1,2.6468119E-2,-1.3866721E-1,-7.1274224E-3,-1.1993121E-1,2.1754907E-1,-2.3089482E-1,-3.9274704E-2,-2.9284315E-2,1.9089983E-1,5.0499886E-2,-1.2678927E-1],"categories":[],"categories_nodes":[],"categories_segments":[],"categories_sizes":[],"default_left":[0,0,0,0,0,0,0,0,0,0,0,0,0,0,0,0,0,0,0,0,0,0,0,0,0,0,0,0,0,0,0,0,0,0,0,0,0,0,0,0,0,0,0,0,0,0,0,0,0,0,0,0,0,0,0,0,0,0,0,0,0,0,0,0,0,0,0,0,0,0,0,0,0,0,0,0,0,0,0,0,0,0,0,0,0,0,0,0,0,0,0,0,0,0,0,0,0,0,0,0,0,0,0,0,0,0,0,0,0,0,0],"id":8,"left_children":[1,3,5,7,9,11,13,15,17,19,21,23,25,27,29,31,33,35,37,39,41,43,45,47,49,51,53,55,57,59,61,-1,-1,-1,-1,-1,-1,63,65,67,69,71,73,75,77,-1,79,81,83,85,87,89,91,93,95,97,99,101,103,-1,105,107,109,-1,-1,-1,-1,-1,-1,-1,-1,-1,-1,-1,-1,-1,-1,-1,-1,-1,-1,-1,-1,-1,-1,-1,-1,-1,-1,-1,-1,-1,-1,-1,-1,-1,-1,-1,-1,-1,-1,-1,-1,-1,-1,-1,-1,-1,-1,-1,-1],"loss_changes":[2.925262E0,3.3804054E0,5.0208464E0,2.3687935E0,3.5078702E0,7.545074E0,1.9145207E0,5.720434E-1,1.5559309E0,1.8256583E0,2.6442332E0,3.363893E0,3.3433313E0,3.2272825E0,3.6453848E0,2.854462E-1,1.7458153E-1,4.87041E-1,2.8047652E0,7.6170535E0,2.3838773E0,2.2418869E0,9.381952E-1,1.7474251E0,2.5388079E0,1.2768432E1,2.9786415E0,3.241554E0,1.738107E0,3.475862E0,1.7631898E0,0E0,0E0,0E0,0E0,0E0,0E0,3.7075777E0,4.8784413E0,5.5380645E0,2.652543E0,2.7381787E0,4.6275473E0,1.2799436E0,1.3013706E0,0E0,2.787754E0,5.1663837E0,1.7415028E0,1.6250589E0,1.0953572E0,1.9812145E0,5.495684E0,3.5421786E0,6.0912614E0,6.7779493E-1,4.9823457E-1,1.4079264E0,1.8729088E0,0E0,1.1085236E0,2.1934807E0,3.424035E0,0E0,0E0,0E0,0E0,0E0,0E0,0E0,0E0,0E0,0E0,0E0,0E0,0E0,0E0,0E0,0E0,0E0,0E0,0E0,0E0,0E0,0E0,0E0,0E0,0E0,0E0,0E0,0E0,0E0,0E0,0E0,0E0,0E0,0E0,0E0,0E0,0E0,0E0,0E0,0E0,0E0,0E0,0E0,0E0,0E0,0E0,0E0,0E0],"parents":[2147483647,0,0,1,1,2,2,3,3,4,4,5,5,6,6,7,7,8,8,9,9,10,10,11,11,12,12,13,13,14,14,15,15,16,16,17,17,18,18,19,19,20,20,21,21,22,22,23,23,24,24,25,25,26,26,27,27,28,28,29,29,30,30,37,37,38,38,39,39,40,40,41,41,42,42,43,43,44,44,46,46,47,47,48,48,49,49,50,50,51,51,52,52,53,53,54,54,55,55,56,56,57,57,58,58,60,60,61,61,62,62],"right_children":[2,4,6,8,10,12,14,16,18,20,22,24,26,28,30,32,34,36,38,40,42,44,46,48,50,52,54,56,58,60,62,-1,-1,-1,-1,-1,-1,64,66,68,70,72,74,76,78,-1,80,82,84,86,88,90,92,94,96,98,100,102,104,-1,106,108,110,-1,-1,-1,-1,-1,-1,-1,-1,-1,-1,-1,-1,-1,-1,-1,-1,-1,-1,-1,-1,-1,-1,-1,-1,-1,-1,-1,-1,-1,-1,-1,-1,-1,-1,-1,-1,-1,-1,-1,-1,-1,-1,-1,-1,-1,-1,-1,-1],"split_conditions":[-2.367375E0,2.4465547E0,1.6235797E0,-2.8163176E0,3.1434085E0,-1.6731749E0,-9.415589E-1,-8.5114074E-1,-1.5901356E0,2.8844883E0,-2.8428817E-1,6.424984E-1,1.1127639E0,1.7365063E0,1.6782565E0,-1.1502163E0,8.615886E-1,2.1599207E0,-4.1296023E-1,-3.2329495E0,-3.2329495E0,-9.937233E-1,5.294756E-1,-1.1884701E0,1.0076488E0,-1.1471105E0,9.624397E-1,-1.5636234E0,-1.5636234E0,-3.0689272E-1,1.937636E0,1.2798372E-1,-2.8716655E-2,2.968758E-1,9.28046E-2,3.1392175E-1,4.3988004E-2,1.937636E0,1.347654E-1,4.3210217E-1,-1.1884701E0,-1.4249486E0,-2.129969E-1,-1.3171422E0,3.6052003E0,2.3400868E-1,7.4161065E-1,-1.2597615E0,-1.9429733E0,9.311411E-1,1.4018288E0,-3.5036302E-1,9.360475E-1,-1.4192092E0,1.5432028E0,-2.168964E0,-1.3773029E0,-1.3849559E0,1.7998172E0,-4.4102892E-1,-1.866454E0,-1.3048998E0,-2.2658322E0,2.974694E-1,-8.267585E-2,3.0016035E-1,3.3909198E-2,3.8301024E-1,-1.3431191E-1,-1.7761801E-1,-1.0481568E-2,1.6256908E-1,-2.1598081E-1,-2.3999204E-1,1.8368766E-1,-4.255164E-3,2.0286927E-1,-8.628269E-3,-2.9367563E-1,-1.6991594E-1,1.4079311E-1,1.4471924E-1,-3.5890746E-1,5.9708033E-2,2.3686995E-1,-2.0263378E-2,-3.2074863E-1,2.0465238E-1,1.209366E-2,5.800329E-2,1.6510569E-1,4.027397E-4,-6.954987E-2,9.77248E-3,-8.08492E-2,1.1168348E-1,-8.857203E-2,2.1886382E-2,2.837408E-1,-1.5971114E-1,2.6468119E-2,-1.3866721E-1,-7.1274224E-3,-1.1993121E-1,2.1754907E-1,-2.3089482E-1,-3.9274704E-2,-2.9284315E-2,1.9089983E-1,5.0499886E-2,-1.2678927E-1],"split_indices":[2,3,3,2,3,2,0,0,0,3,0,0,3,3,3,0,0,3,0,2,2,0,0,0,0,2,0,2,2,0,3,0,0,0,0,0,0,3,0,0,0,0,0,0,3,0,0,0,2,0,3,0,3,2,0,2,2,0,3,0,2,2,2,0,0,0,0,0,0,0,0,0,0,0,0,0,0,0,0,0,0,0,0,0,0,0,0,0,0,0,0,0,0,0,0,0,0,0,0,0,0,0,0,0,0,0,0,0,0,0,0],"split_type":[0,0,0,0,0,0,0,0,0,0,0,0,0,0,0,0,0,0,0,0,0,0,0,0,0,0,0,0,0,0,0,0,0,0,0,0,0,0,0,0,0,0,0,0,0,0,0,0,0,0,0,0,0,0,0,0,0,0,0,0,0,0,0,0,0,0,0,0,0,0,0,0,0,0,0,0,0,0,0,0,0,0,0,0,0,0,0,0,0,0,0,0,0,0,0,0,0,0,0,0,0,0,0,0,0,0,0,0,0,0,0],"sum_hessian":[5.142955E3,1.8660056E2,4.9563545E3,6.487819E1,1.2172237E2,4.787627E3,1.6872737E2,1.000837E1,5.486982E1,8.118523E1,4.053714E1,5.3993088E1,4.733634E3,4.3982502E1,1.2474487E2,3.0720184E0,6.9363523E0,3.1096115E0,5.176021E1,5.9555473E1,2.1629755E1,1.6606825E1,2.3930315E1,3.7367474E1,1.6625614E1,4.496011E3,2.3762265E2,1.073865E1,3.324385E1,1.5041737E1,1.0970313E2,1.9225092E0,1.1495092E0,5.2523136E0,1.6840384E0,1.8773094E0,1.2323021E0,1.9779488E1,3.1980719E1,7.9453173E0,5.1610157E1,1.3708028E1,7.9217267E0,1.16581135E1,4.948711E0,6.4180965E0,1.7512218E1,8.609759E0,2.8757713E1,5.967119E0,1.0658494E1,7.026863E1,4.4257427E3,1.8377956E2,5.3843086E1,7.00369E0,3.7349606E0,2.8522518E1,4.7213326E0,3.2924352E0,1.1749302E1,5.4316254E1,5.538688E1,1.6383998E0,1.8141088E1,7.4302554E0,2.4550465E1,5.9826636E0,1.9626534E0,9.787762E0,4.1822395E1,1.2331989E0,1.2474829E1,2.7152212E0,5.206506E0,8.822982E0,2.8351312E0,2.7108393E0,2.2378716E0,2.2168186E0,1.5295401E1,7.244811E0,1.3649483E0,7.510761E0,2.1246954E1,4.1411066E0,1.8260125E0,3.2814193E0,7.377075E0,2.6053043E1,4.4215588E1,4.323245E3,1.024975E2,5.5125244E1,1.2865431E2,3.0831568E1,2.3011518E1,1.2272168E0,5.776473E0,1.748539E0,1.9864215E0,1.3781003E1,1.4741514E1,1.4921376E0,3.2291949E0,3.48257E0,8.266731E0,5.089401E1,3.422246E0,1.19861965E1,4.3400684E1],"tree_param":{"num_deleted":"0","num_feature":"4","num_nodes":"111","size_leaf_vector":"1"}},{"base_weights":[1.2521414E-5,1.6350102E-2,-3.295033E-2,8.984788E-2,-9.109853E-3,8.813179E-3,-1.3164368E-1,9.743706E-2,-5.511656E-1,1.3513508E-2,-1.3992621E-1,5.5359952E-2,-6.800858E-2,-1.1189882E-1,-3.808727E-1,1.93295E-1,7.707003E-2,-1.0300599E-2,-6.816673E-1,-3.774285E-1,1.6523715E-2,-1.2521441E-1,-9.7620064E-1,6.586181E-2,-6.955412E-1,-2.2709657E-2,-2.909947E-1,-8.31882E-2,-2.9616657E-1,-4.3623987E-1,2.23898E-1,1.3328075E-1,4.5011142E-1,-5.349244E-1,8.423187E-2,-4.512786E-1,-2.8458166E-1,-5.57331E-1,5.112737E-1,5.910676E-1,1.2296438E-2,-6.6678114E-2,-2.3883487E-1,-3.8622233E-1,-6.770657E-2,5.89799E-2,4.0075845E-1,-1.0073826E0,1.6920626E-1,8.4280156E-2,-6.578562E-2,-2.0198196E-1,-3.8302055E-1,-1.5922536E-1,2.1913912E-2,-9.557871E-2,-5.2251476E-1,-5.8100677E-1,-9.437652E-2,6.248233E-2,-3.1717233E-2,1.6274211E-1,-7.251522E-2,-4.5969497E-2,-3.3201554E-1,1.1916984E-1,2.323946E-2,-2.4821678E-1,-2.5823659E-3,-8.329017E-2,-4.470319E-1,2.6077175E-1,-2.6344722E-2,2.115762E-1,-1.0365576E-1,-1.13043655E-2,1.0737885E-2,7.157694E-3,-6.3060716E-2,-2.3332208E-1,-6.0309384E-2,9.5301464E-2,1.269932E-2,-3.7316903E-1,-1.651116E-1,-5.3385515E-3,2.1805592E-1,-2.9021576E-1,-1.2778344E-2,1.5992425E-1,-8.802275E-2,-4.0390078E-2,-2.796858E-1,1.308718E-1,-9.589992E-3,-6.833338E-2,1.8915065E-1,6.417684E-2,-2.1661513E-1,1.1982743E-1,-1.9605263E-1,1.6242138E-1,-1.0611862E-1],"categories":[],"categories_nodes":[],"categories_segments":[],"categories_sizes":[],"default_left":[0,0,0,0,0,0,0,0,0,0,0,0,0,0,0,0,0,0,0,0,0,0,0,0,0,0,0,0,0,0,0,0,0,0,0,0,0,0,0,0,0,0,0,0,0,0,0,0,0,0,0,0,0,0,0,0,0,0,0,0,0,0,0,0,0,0,0,0,0,0,0,0,0,0,0,0,0,0,0,0,0,0,0,0,0,0,0,0,0,0,0,0,0,0,0,0,0,0,0,0,0,0,0],"id":9,"left_children":[1,3,5,7,9,11,13,15,17,19,21,23,25,27,29,31,33,-1,35,37,39,41,43,45,47,49,51,53,55,57,-1,59,61,63,65,67,-1,69,71,73,75,77,79,-1,-1,81,-1,83,-1,85,87,89,-1,91,93,95,97,99,101,-1,-1,-1,-1,-1,-1,-1,-1,-1,-1,-1,-1,-1,-1,-1,-1,-1,-1,-1,-1,-1,-1,-1,-1,-1,-1,-1,-1,-1,-1,-1,-1,-1,-1,-1,-1,-1,-1,-1,-1,-1,-1,-1,-1],"loss_changes":[2.7646112E0,6.423662E0,7.0131855E0,4.350166E0,7.5492287E0,4.2815375E0,2.4469223E0,1.6908541E0,6.837218E-1,2.5659397E0,4.5048804E0,5.924685E0,4.557188E0,2.4628263E0,2.6173482E0,2.289534E0,3.2106972E0,0E0,8.343744E-2,2.9488728E0,5.237501E0,2.4498286E0,1.1936893E0,6.3549814E0,4.6409407E0,1.7412336E0,6.4284015E0,3.2655952E0,2.810079E0,1.7086682E0,0E0,2.2622602E0,1.9493604E0,1.6834455E0,1.4831519E0,1.0537385E0,0E0,3.3263226E0,7.8974426E-1,1.9281869E0,2.519866E0,3.2024937E0,2.4038763E0,0E0,0E0,3.1444044E0,0E0,2.5254917E-1,0E0,7.1324186E0,5.584783E0,4.933278E0,0E0,4.3793764E0,3.8587115E0,3.4667354E0,4.470525E0,2.0266447E0,2.1363008E0,0E0,0E0,0E0,0E0,0E0,0E0,0E0,0E0,0E0,0E0,0E0,0E0,0E0,0E0,0E0,0E0,0E0,0E0,0E0,0E0,0E0,0E0,0E0,0E0,0E0,0E0,0E0,0E0,0E0,0E0,0E0,0E0,0E0,0E0,0E0,0E0,0E0,0E0,0E0,0E0,0E0,0E0,0E0,0E0],"parents":[2147483647,0,0,1,1,2,2,3,3,4,4,5,5,6,6,7,7,8,8,9,9,10,10,11,11,12,12,13,13,14,14,15,15,16,16,18,18,19,19,20,20,21,21,22,22,23,23,24,24,25,25,26,26,27,27,28,28,29,29,31,31,32,32,33,33,34,34,35,35,37,37,38,38,39,39,40,40,41,41,42,42,45,45,47,47,49,49,50,50,51,51,53,53,54,54,55,55,56,56,57,57,58,58],"right_children":[2,4,6,8,10,12,14,16,18,20,22,24,26,28,30,32,34,-1,36,38,40,42,44,46,48,50,52,54,56,58,-1,60,62,64,66,68,-1,70,72,74,76,78,80,-1,-1,82,-1,84,-1,86,88,90,-1,92,94,96,98,100,102,-1,-1,-1,-1,-1,-1,-1,-1,-1,-1,-1,-1,-1,-1,-1,-1,-1,-1,-1,-1,-1,-1,-1,-1,-1,-1,-1,-1,-1,-1,-1,-1,-1,-1,-1,-1,-1,-1,-1,-1,-1,-1,-1,-1],"split_conditions":[5.1154137E-1,-1.3218154E-1,-6.700272E-1,2.1413538E0,1.3234521E-1,1.0551857E0,-2.464875E-2,9.2881344E-2,1.4976392E-3,-1.1673655E-1,1.9918162E0,1.633621E0,-1.1342742E0,8.5866934E-1,8.8905835E-1,-1.7402917E-1,1.003496E-1,-1.0300599E-2,-2.913741E-1,1.5710237E0,-9.895303E-2,1.4927804E-1,2.2752423E0,1.5432028E0,-7.34334E-1,-4.233931E-1,1.2754258E0,1.6606401E-1,7.912344E-2,4.6166196E-1,2.23898E-1,-2.2611833E-1,6.749792E-2,-2.5793102E-1,-9.5524746E-1,-5.055125E-1,-2.8458166E-1,1.0250369E0,1.7831588E0,9.798278E-1,-6.5465504E-1,2.3735528E-1,-1.4249486E0,-3.8622233E-1,-6.770657E-2,-1.3728632E0,4.0075845E-1,-9.2069083E-1,1.6920626E-1,-4.999008E-1,-3.920945E-1,-1.0232831E0,-3.8302055E-1,1.4345947E-1,2.7039272E-1,-6.519792E-2,8.8905835E-1,-1.6909866E0,3.350437E-2,6.248233E-2,-3.1717233E-2,1.6274211E-1,-7.251522E-2,-4.5969497E-2,-3.3201554E-1,1.1916984E-1,2.323946E-2,-2.4821678E-1,-2.5823659E-3,-8.329017E-2,-4.470319E-1,2.6077175E-1,-2.6344722E-2,2.115762E-1,-1.0365576E-1,-1.13043655E-2,1.0737885E-2,7.157694E-3,-6.3060716E-2,-2.3332208E-1,-6.0309384E-2,9.5301464E-2,1.269932E-2,-3.7316903E-1,-1.651116E-1,-5.3385515E-3,2.1805592E-1,-2.9021576E-1,-1.2778344E-2,1.5992425E-1,-8.802275E-2,-4.0390078E-2,-2.796858E-1,1.308718E-1,-9.589992E-3,-6.833338E-2,1.8915065E-1,6.417684E-2,-2.1661513E-1,1.1982743E-1,-1.9605263E-1,1.6242138E-1,-1.0611862E-1],"split_indices":[2,3,3,0,2,2,3,2,2,3,0,0,3,2,2,3,2,0,3,0,3,3,0,0,3,0,0,0,0,0,0,3,2,3,3,3,0,0,0,0,0,0,0,0,0,3,0,3,0,0,0,0,0,0,0,0,2,0,3,0,0,0,0,0,0,0,0,0,0,0,0,0,0,0,0,0,0,0,0,0,0,0,0,0,0,0,0,0,0,0,0,0,0,0,0,0,0,0,0,0,0,0,0],"split_type":[0,0,0,0,0,0,0,0,0,0,0,0,0,0,0,0,0,0,0,0,0,0,0,0,0,0,0,0,0,0,0,0,0,0,0,0,0,0,0,0,0,0,0,0,0,0,0,0,0,0,0,0,0,0,0,0,0,0,0,0,0,0,0,0,0,0,0,0,0,0,0,0,0,0,0,0,0,0,0,0,0,0,0,0,0,0,0,0,0,0,0,0,0,0,0,0,0,0,0,0,0,0,0],"sum_hessian":[5.1315938E3,3.4313813E3,1.7002125E3,8.821789E2,2.5492024E3,1.1953104E3,5.049021E2,8.7269476E2,9.484146E0,2.174109E3,3.7509338E2,7.444954E2,4.5081497E2,4.691808E2,3.57213E1,1.5144144E2,7.212533E2,2.1666393E0,7.317507E0,1.5662046E1,2.1584468E3,3.6973865E2,5.35474E0,7.3512646E2,9.368956E0,3.7561237E2,7.5202614E1,4.071885E2,6.199228E1,3.4633133E1,1.0881656E0,1.2398657E2,2.7454876E1,7.4904137E0,7.137629E2,5.371796E0,1.9457107E0,1.3335395E1,2.3266513E0,1.4751098E1,2.1436958E3,2.4506836E2,1.2467028E2,3.2794936E0,2.0752463E0,7.322052E2,2.921258E0,7.670189E0,1.6987672E0,1.0754389E2,2.6806845E2,7.007933E1,5.1232862E0,2.3596346E2,1.7122505E2,3.3620415E1,2.8371866E1,2.3838747E1,1.0794385E1,9.4472176E1,2.9514397E1,2.4411688E1,3.0431867E0,5.2523007E0,2.2381132E0,1.3883722E1,6.998792E2,2.4343717E0,2.9374244E0,1.1257441E1,2.077955E0,1.1741464E0,1.1525048E0,1.3368267E1,1.3828306E0,6.853454E2,1.4583503E3,1.5078491E2,9.4283455E1,6.889174E0,1.1778111E2,4.3180504E1,6.890247E2,3.9197896E0,3.7503994E0,9.364095E1,1.3902943E1,5.701413E0,2.6236707E2,7.2178774E0,6.286145E1,2.2982661E2,6.136838E0,1.8887716E1,1.5233734E2,2.9022509E1,4.5979047E0,6.0330896E0,2.2338778E1,1.33098E0,2.2507769E1,2.812425E0,7.9819603E0],"tree_param":{"num_deleted":"0","num_feature":"4","num_nodes":"103","size_leaf_vector":"1"}},{"base_weights":[-5.317126E-4,-1.5182703E-2,2.7421053E-2,-1.2673887E-2,-4.0236843E-1,3.4893148E-2,-1.7727564E-1,6.1802983E-2,-2.2117322E-2,-5.121509E-1,1.4494848E-1,4.8543848E-2,-6.003342E-2,2.943331E-1,-2.3953256E-1,3.8428226E-1,2.7671037E-2,-1.4759729E-2,-2.755514E-1,-3.788151E-1,-3.6700737E-1,2.9503068E-1,3.2518648E-2,7.3572405E-2,-3.7181598E-1,1.5449485E-1,1.7174563E-1,-9.4075304E-1,-1.8545741E-1,2.5471225E-1,2.7875203E-1,2.029103E-1,7.1869553E-3,1.07886404E-1,-2.0959444E-2,-2.1334027E-1,-8.908009E-1,-5.006667E-1,2.0633866E-1,1.4781275E-1,5.430038E-1,4.383864E-2,-3.4877744E-1,7.4249125E-1,2.5847353E-2,-5.075449E-1,-4.955646E-2,-5.2861664E-2,7.576835E-2,-6.662498E-2,-3.6418253E-1,-2.9883927E-1,1.8737513E-1,1.3892733E-1,-5.9167888E-2,3.149268E-1,7.7106366E-3,1.4301292E-2,-8.089701E-2,5.4894548E-2,-1.990241E-2,-2.127427E-3,-4.1265015E-2,-7.520509E-2,1.089048E-1,-3.2514828E-1,-1.0725673E-1,-3.895691E-2,-2.2198448E-1,9.136189E-2,-2.5971029E-2,2.5247318E-1,6.430881E-2,5.8709573E-2,7.1464456E-3,-1.6145039E-1,8.143685E-2,9.8766685E-2,3.1354457E-1,-4.495386E-3,2.2005387E-1,-9.427317E-2,-2.3506875E-1,4.0279537E-2,-1.7738727E-1,-4.6521574E-2,-2.8171864E-1,2.5905755E-1,3.847097E-3],"categories":[],"categories_nodes":[],"categories_segments":[],"categories_sizes":[],"default_left":[0,0,0,0,0,0,0,0,0,0,0,0,0,0,0,0,0,0,0,0,0,0,0,0,0,0,0,0,0,0,0,0,0,0,0,0,0,0,0,0,0,0,0,0,0,0,0,0,0,0,0,0,0,0,0,0,0,0,0,0,0,0,0,0,0,0,0,0,0,0,0,0,0,0,0,0,0,0,0,0,0,0,0,0,0,0,0,0,0],"id":10,"left_children":[1,3,5,7,9,11,13,15,17,19,-1,21,23,25,27,29,31,33,35,37,-1,39,41,43,45,47,-1,49,51,53,-1,55,57,59,61,63,65,67,-1,69,71,73,75,77,79,81,83,-1,-1,-1,-1,85,87,-1,-1,-1,-1,-1,-1,-1,-1,-1,-1,-1,-1,-1,-1,-1,-1,-1,-1,-1,-1,-1,-1,-1,-1,-1,-1,-1,-1,-1,-1,-1,-1,-1,-1,-1,-1],"loss_changes":[2.0925155E0,3.2513082E0,2.6937008E0,2.3446882E0,2.3424144E0,2.2006917E0,1.8922182E0,4.118999E0,5.5109105E0,1.4007449E0,0E0,5.84975E0,8.92846E0,2.1043909E-1,1.9247603E0,2.293147E0,1.2202865E0,2.18851E0,3.0015664E0,2.6841862E0,0E0,3.220975E0,6.0319424E0,4.782747E0,2.7857723E0,2.5475124E-1,0E0,4.603765E-1,2.2813616E0,2.9472933E0,0E0,5.3130836E0,3.4398577E0,1.824382E0,4.425604E0,1.7492065E0,3.6830854E-1,1.3888655E0,0E0,2.1612244E0,3.0884037E0,4.1131945E0,4.880248E0,9.043231E-1,4.097836E0,2.1606407E0,2.0863297E0,0E0,0E0,0E0,0E0,3.605387E0,1.5103267E0,0E0,0E0,0E0,0E0,0E0,0E0,0E0,0E0,0E0,0E0,0E0,0E0,0E0,0E0,0E0,0E0,0E0,0E0,0E0,0E0,0E0,0E0,0E0,0E0,0E0,0E0,0E0,0E0,0E0,0E0,0E0,0E0,0E0,0E0,0E0,0E0],"parents":[2147483647,0,0,1,1,2,2,3,3,4,4,5,5,6,6,7,7,8,8,9,9,11,11,12,12,13,13,14,14,15,15,16,16,17,17,18,18,19,19,21,21,22,22,23,23,24,24,25,25,27,27,28,28,29,29,31,31,32,32,33,33,34,34,35,35,36,36,37,37,39,39,40,40,41,41,42,42,43,43,44,44,45,45,46,46,51,51,52,52],"right_children":[2,4,6,8,10,12,14,16,18,20,-1,22,24,26,28,30,32,34,36,38,-1,40,42,44,46,48,-1,50,52,54,-1,56,58,60,62,64,66,68,-1,70,72,74,76,78,80,82,84,-1,-1,-1,-1,86,88,-1,-1,-1,-1,-1,-1,-1,-1,-1,-1,-1,-1,-1,-1,-1,-1,-1,-1,-1,-1,-1,-1,-1,-1,-1,-1,-1,-1,-1,-1,-1,-1,-1,-1,-1,-1],"split_conditions":[4.3210217E-1,4.216693E-1,2.1413538E0,-1.1471105E0,1.0562352E0,1.1684961E0,-2.567164E0,1.0856727E0,1.0315863E0,5.295332E-1,1.4494848E-1,-8.539508E-1,-1.5177767E0,-3.2329495E0,-1.7942066E0,3.5653148E-2,-3.2329495E0,-7.1390843E-1,-4.4008848E-1,2.2496587E-1,-3.6700737E-1,1.2754258E0,8.754966E-1,5.1730394E-1,-1.04769E0,2.4960713E0,1.7174563E-1,2.2752423E0,8.3658767E-1,-4.999008E-1,2.7875203E-1,2.8844883E0,2.4465547E0,-2.129969E-1,4.4248354E-1,3.1038538E-1,-2.8180224E-1,-6.815939E-1,2.0633866E-1,9.033201E-1,1.633621E0,-3.745992E-1,1.0562352E0,4.8426652E-1,1.9309577E0,-1.263439E0,1.361508E0,-5.2861664E-2,7.576835E-2,-6.662498E-2,-3.6418253E-1,5.6939495E-1,9.360475E-1,1.3892733E-1,-5.9167888E-2,3.149268E-1,7.7106366E-3,1.4301292E-2,-8.089701E-2,5.4894548E-2,-1.990241E-2,-2.127427E-3,-4.1265015E-2,-7.520509E-2,1.089048E-1,-3.2514828E-1,-1.0725673E-1,-3.895691E-2,-2.2198448E-1,9.136189E-2,-2.5971029E-2,2.5247318E-1,6.430881E-2,5.8709573E-2,7.1464456E-3,-1.6145039E-1,8.143685E-2,9.8766685E-2,3.1354457E-1,-4.495386E-3,2.2005387E-1,-9.427317E-2,-2.3506875E-1,4.0279537E-2,-1.7738727E-1,-4.6521574E-2,-2.8171864E-1,2.5905755E-1,3.847097E-3],"split_indices":[0,0,0,2,3,3,2,3,3,3,0,2,2,2,2,0,2,2,2,3,0,0,3,0,2,0,0,0,3,0,0,3,3,0,3,0,2,3,0,0,0,2,3,0,0,2,3,0,0,0,0,3,3,0,0,0,0,0,0,0,0,0,0,0,0,0,0,0,0,0,0,0,0,0,0,0,0,0,0,0,0,0,0,0,0,0,0,0,0],"split_type":[0,0,0,0,0,0,0,0,0,0,0,0,0,0,0,0,0,0,0,0,0,0,0,0,0,0,0,0,0,0,0,0,0,0,0,0,0,0,0,0,0,0,0,0,0,0,0,0,0,0,0,0,0,0,0,0,0,0,0,0,0,0,0,0,0,0,0,0,0,0,0,0,0,0,0,0,0,0,0,0,0,0,0,0,0,0,0,0,0],"sum_hessian":[5.1074663E3,3.3513613E3,1.7561049E3,3.3308118E3,2.054965E1,1.6950592E3,6.104563E1,3.7418765E2,2.956624E3,1.8658173E1,1.891478E0,1.4823779E3,2.1268138E2,6.684147E0,5.4361485E1,3.483234E1,3.3935532E2,2.8742385E3,8.238546E1,1.70031E1,1.655072E0,8.9429794E1,1.3929481E3,1.4941692E2,6.326447E1,5.483038E0,1.2011089E0,2.718045E0,5.164344E1,2.9326279E1,5.50606E0,3.4584305E1,3.0477103E2,1.3751143E2,2.736727E3,7.604309E1,6.3423676E0,1.57359915E1,1.2671084E0,5.7116604E1,3.231319E1,1.3536459E3,3.9302258E1,8.980979E0,1.4043593E2,4.4110924E1,1.9153547E1,1.071823E0,4.4112153E0,1.2479713E0,1.4700737E0,3.9752728E1,1.1890713E1,2.0054787E1,9.271493E0,5.132615E0,2.945169E1,2.6661115E2,3.815987E1,9.605827E1,4.1453148E1,2.4467554E3,2.8997174E2,7.194657E1,4.096517E0,3.8987727E0,2.443595E0,6.7767987E0,8.959193E0,3.404926E1,2.3067347E1,1.611332E1,1.619987E1,1.5662619E2,1.1970197E3,3.0209879E1,9.092378E0,4.679306E0,4.301673E0,1.3370032E2,6.7356205E0,2.7200396E1,1.6910528E1,1.4862539E1,4.291007E0,3.347733E1,6.2753973E0,1.629911E0,1.0260802E1],"tree_param":{"num_deleted":"0","num_feature":"4","num_nodes":"89","size_leaf_vector":"1"}},{"base_weights":[-2.9801685E-4,9.989736E-2,-3.6088855E-3,2.4651805E-1,5.6044627E-3,-2.0028283E-3,-5.5573285E-1,7.524202E-1,7.0197E-2,-3.1479083E-2,8.5949975E-1,-7.4540375E-4,-3.8571256E-1,-7.826443E-2,-8.131496E-1,8.869452E-1,1.7255096E-1,1.8236807E-1,-2.8843114E-1,8.456484E-2,-4.0420526E-1,7.737442E-2,3.0517665E-1,-1.479182E-1,1.4897452E-3,-5.7979953E-1,3.6560115E-1,-8.78872E-1,3.156634E-1,-4.7555587E-1,-3.1839204E-1,4.3477973E-1,3.4184188E-1,-2.0587882E-3,1.07617214E-1,7.1367496E-1,6.3897595E-2,-2.8906357E-1,2.4262552E-1,-9.341716E-2,2.2650081E-1,3.8250786E-1,-6.7598546E-1,-4.3283936E-1,2.6506467E-2,3.4802187E-2,-1.2709779E-2,-3.4204948E-1,-2.8719836E-1,2.3463173E-1,-3.3795934E-2,-7.605884E-2,-3.5701257E-1,7.057814E-2,-9.1451126E-1,2.0779276E-1,-6.5848455E-2,-5.2922923E-2,3.0781335E-1,-3.2599207E-2,9.8784894E-2,2.5756627E-1,-8.787393E-2,-1.8163706E-3,-2.8355366E-1,3.5806566E-1,4.017476E-2,-8.133231E-2,3.8101667E-1,-2.7870238E-1,-1.0734547E-1,-3.5845855E-1,-1.0069309E-1,3.0211547E-2,-1.5050562E-1,3.6093526E-2,2.5657814E-3,1.6317026E-3,-3.4579467E-2,-2.1737057E-1,3.9907172E-1,-3.4733042E-1,-7.1311116E-2],"categories":[],"categories_nodes":[],"categories_segments":[],"categories_sizes":[],"default_left":[0,0,0,0,0,0,0,0,0,0,0,0,0,0,0,0,0,0,0,0,0,0,0,0,0,0,0,0,0,0,0,0,0,0,0,0,0,0,0,0,0,0,0,0,0,0,0,0,0,0,0,0,0,0,0,0,0,0,0,0,0,0,0,0,0,0,0,0,0,0,0,0,0,0,0,0,0,0,0,0,0,0,0],"id":11,"left_children":[1,3,5,7,9,11,13,15,17,19,21,23,25,27,29,31,33,35,37,39,41,-1,-1,43,45,47,49,51,-1,53,-1,55,-1,-1,-1,57,59,-1,61,63,65,67,69,71,73,75,77,79,-1,-1,-1,-1,-1,-1,81,-1,-1,-1,-1,-1,-1,-1,-1,-1,-1,-1,-1,-1,-1,-1,-1,-1,-1,-1,-1,-1,-1,-1,-1,-1,-1,-1,-1],"loss_changes":[1.6904134E0,2.2520957E0,4.372843E0,5.635827E0,3.200681E0,2.373209E0,1.6943283E0,1.1246586E0,1.9993749E0,4.230411E0,1.3686967E-1,1.6134856E0,2.5547335E0,6.460701E0,2.6489878E-1,9.9508E-1,1.4695434E-1,2.3133154E0,4.506496E0,1.9110131E0,5.220479E0,0E0,0E0,3.6581407E0,2.286014E0,8.532591E-1,8.672753E-1,5.010817E-1,0E0,1.9948252E0,0E0,1.21403E0,0E0,0E0,0E0,2.0534408E0,1.4894083E0,0E0,2.7152522E0,2.5167348E0,3.5926893E0,4.1714745E0,1.0852118E0,1.6669273E0,1.8712125E0,3.2408957E0,6.307541E0,7.122315E0,0E0,0E0,0E0,0E0,0E0,0E0,3.390305E-1,0E0,0E0,0E0,0E0,0E0,0E0,0E0,0E0,0E0,0E0,0E0,0E0,0E0,0E0,0E0,0E0,0E0,0E0,0E0,0E0,0E0,0E0,0E0,0E0,0E0,0E0,0E0,0E0],"parents":[2147483647,0,0,1,1,2,2,3,3,4,4,5,5,6,6,7,7,8,8,9,9,10,10,11,11,12,12,13,13,14,14,15,15,16,16,17,17,18,18,19,19,20,20,23,23,24,24,25,25,26,26,27,27,29,29,31,31,35,35,36,36,38,38,39,39,40,40,41,41,42,42,43,43,44,44,45,45,46,46,47,47,54,54],"right_children":[2,4,6,8,10,12,14,16,18,20,22,24,26,28,30,32,34,36,38,40,42,-1,-1,44,46,48,50,52,-1,54,-1,56,-1,-1,-1,58,60,-1,62,64,66,68,70,72,74,76,78,80,-1,-1,-1,-1,-1,-1,82,-1,-1,-1,-1,-1,-1,-1,-1,-1,-1,-1,-1,-1,-1,-1,-1,-1,-1,-1,-1,-1,-1,-1,-1,-1,-1,-1,-1],"split_conditions":[-2.46819E0,2.57607E0,2.3431249E0,-2.8163176E0,-2.567164E0,2.4960713E0,-2.4777313E-1,8.615886E-1,2.4465547E0,-2.9841526E0,-1.0076338E0,-2.038749E0,5.155612E-2,-9.6068585E-1,9.954771E-1,-6.2683403E-1,1.5084265E0,-1.070231E0,-2.3734026E-1,-2.8428817E-1,-8.250586E-1,7.737442E-2,3.0517665E-1,-3.592335E-1,-1.822429E-1,-1.4577398E-1,2.0725062E-1,-1.6214342E0,3.156634E-1,2.4465547E0,-3.1839204E-1,-8.824393E-1,3.4184188E-1,-2.0587882E-3,1.07617214E-1,2.0748222E0,-2.567164E0,-2.8906357E-1,-2.684939E0,-4.3382597E-1,-1.6083255E-1,-1.4458143E0,-2.8163176E0,2.998038E-1,4.600157E-1,4.0900356E-1,8.730305E-2,-2.2705506E-1,-2.8719836E-1,2.3463173E-1,-3.3795934E-2,-7.605884E-2,-3.5701257E-1,7.057814E-2,4.7383365E-1,2.0779276E-1,-6.5848455E-2,-5.2922923E-2,3.0781335E-1,-3.2599207E-2,9.8784894E-2,2.5756627E-1,-8.787393E-2,-1.8163706E-3,-2.8355366E-1,3.5806566E-1,4.017476E-2,-8.133231E-2,3.8101667E-1,-2.7870238E-1,-1.0734547E-1,-3.5845855E-1,-1.0069309E-1,3.0211547E-2,-1.5050562E-1,3.6093526E-2,2.5657814E-3,1.6317026E-3,-3.4579467E-2,-2.1737057E-1,3.9907172E-1,-3.4733042E-1,-7.1311116E-2],"split_indices":[2,3,3,2,2,0,0,0,3,2,0,0,2,0,0,0,0,0,0,0,0,0,0,2,2,2,2,0,0,3,0,0,0,0,0,3,2,0,2,0,0,0,2,3,2,3,3,2,0,0,0,0,0,0,0,0,0,0,0,0,0,0,0,0,0,0,0,0,0,0,0,0,0,0,0,0,0,0,0,0,0,0,0],"split_type":[0,0,0,0,0,0,0,0,0,0,0,0,0,0,0,0,0,0,0,0,0,0,0,0,0,0,0,0,0,0,0,0,0,0,0,0,0,0,0,0,0,0,0,0,0,0,0,0,0,0,0,0,0,0,0,0,0,0,0,0,0,0,0,0,0,0,0,0,0,0,0,0,0,0,0,0,0,0,0,0,0,0,0],"sum_hessian":[5.0936064E3,1.6199673E2,4.93161E3,6.27732E1,9.922353E1,4.9183066E3,1.330309E1,1.5379333E1,4.739387E1,9.6016785E1,3.2067475E0,4.9032407E3,1.5066074E1,5.116607E0,8.186482E0,1.2053465E1,3.3258674E0,3.647635E1,1.0917522E1,7.381002E1,2.2206766E1,1.2136228E0,1.9931247E0,7.237762E1,4.830863E3,1.21544895E1,2.911585E0,3.1256053E0,1.991002E0,4.703787E0,3.4826956E0,5.2947025E0,6.758763E0,2.1841536E0,1.1417139E0,5.734527E0,3.0741821E1,4.448238E0,6.469284E0,3.289848E1,4.091154E1,5.597231E0,1.6609535E1,2.692095E1,4.545667E1,1.443328E3,3.387535E3,8.627383E0,3.5271065E0,1.2166702E0,1.6949148E0,1.6415092E0,1.4840963E0,1.9729548E0,2.730832E0,3.7558172E0,1.5388852E0,1.6027652E0,4.131762E0,1.898666E1,1.175516E1,2.7282891E0,3.7409952E0,3.0751501E1,2.1469793E0,2.5356114E0,3.8375927E1,3.623399E0,1.973832E0,8.182517E0,8.427018E0,1.7678117E0,2.5153137E1,4.056725E1,4.889416E0,3.38162E2,1.105166E3,2.8789968E3,5.0853812E2,7.482547E0,1.1448363E0,1.4860783E0,1.2447538E0],"tree_param":{"num_deleted":"0","num_feature":"4","num_nodes":"83","size_leaf_vector":"1"}},{"base_weights":[-1.9288217E-4,9.286641E-3,-3.593545E-2,5.6522813E-2,-4.235889E-3,-2.2916073E-2,-3.385931E-1,2.0916797E-1,3.959016E-2,2.7256687E-3,-1.852998E-1,-4.9503226E-2,2.176947E-1,-4.5161244E-1,1.07831925E-1,1.03455864E-1,7.26163E-1,-1.2612835E-1,6.6893145E-2,-2.1936065E-1,5.3917263E-3,-5.4327977E-1,-6.858434E-2,-2.643976E-2,-2.288358E-1,7.644108E-1,1.5097585E-1,-2.0174558E-1,-7.7473146E-1,-5.432046E-1,4.4209674E-1,-2.7410406E-1,1.3839139E-1,1.5790567E-1,9.407279E-1,-1.6449015E-1,5.568806E-1,4.6971705E-2,2.9032347E-1,-3.5556877E-1,-2.4635382E-2,3.6278896E-3,2.6379633E-1,-1.6170388E-1,-7.898704E-1,-2.3662215E-1,1.215906E-1,-3.263127E-2,4.6212408E-1,1.3502653E-1,-3.2336888E-1,1.0536892E0,-2.4325174E-1,-8.198962E-2,2.6483405E-1,-1.059958E0,8.524567E-3,-1.2541999E-1,-3.3261108E-1,-3.7128527E-2,-2.1072091E-1,-2.4116846E-2,6.3218516E-1,1.1801291E-1,-2.9644256E-3,2.54015E-1,-2.6170892E-1,3.4204322E-1,-4.319162E-2,-2.039264E-2,-1.3094142E-1,3.1397152E-1,-3.0010575E-2,1.8278904E-2,-1.7849286E-1,3.7537003E-1,5.514466E-2,-3.1014968E-2,-1.9846517E-1,-7.606881E-2,1.0668046E-1,1.974753E-3,-6.993473E-2,1.1622657E-1,-2.4798599E-1,-3.714761E-1,9.878021E-2,-2.868677E-1,-2.1473994E-2,6.847892E-2,-1.00126185E-1,1.3560188E-1,-5.4394517E-2,1.1784332E-2,-2.0840641E-2,2.1055928E-1,-2.2605391E-1,1.11593924E-1,-1.4601561E-1,-1.2690273E-1,-4.196719E-3,4.1525057E-1,1.3810141E-1,-8.58861E-2,6.538311E-2,1.0331919E-1,-6.217037E-2,-3.818487E-1,-1.1716158E-1,9.5253624E-2,-1.6933303E-1,-2.2792128E-1,1.5002063E-1,2.9265743E-1,-1.214233E-2],"categories":[],"categories_nodes":[],"categories_segments":[],"categories_sizes":[],"default_left":[0,0,0,0,0,0,0,0,0,0,0,0,0,0,0,0,0,0,0,0,0,0,0,0,0,0,0,0,0,0,0,0,0,0,0,0,0,0,0,0,0,0,0,0,0,0,0,0,0,0,0,0,0,0,0,0,0,0,0,0,0,0,0,0,0,0,0,0,0,0,0,0,0,0,0,0,0,0,0,0,0,0,0,0,0,0,0,0,0,0,0,0,0,0,0,0,0,0,0,0,0,0,0,0,0,0,0,0,0,0,0,0,0,0,0],"id":12,"left_children":[1,3,5,7,9,11,13,15,17,19,21,23,25,27,29,31,33,35,37,39,41,43,45,47,49,51,53,55,57,59,61,-1,63,65,67,69,71,73,75,77,79,81,83,85,87,89,91,93,95,97,99,101,-1,103,105,107,109,111,-1,-1,-1,-1,113,-1,-1,-1,-1,-1,-1,-1,-1,-1,-1,-1,-1,-1,-1,-1,-1,-1,-1,-1,-1,-1,-1,-1,-1,-1,-1,-1,-1,-1,-1,-1,-1,-1,-1,-1,-1,-1,-1,-1,-1,-1,-1,-1,-1,-1,-1,-1,-1,-1,-1,-1,-1],"loss_changes":[1.7222707E0,2.5664876E0,4.19086E0,2.3030243E0,3.9387238E0,6.5528564E0,2.2622776E0,4.7920756E0,3.6560555E0,1.7831933E0,4.796585E0,3.8061762E0,3.6030946E0,2.685813E0,2.3446155E0,2.795229E0,1.6745677E0,3.0885274E0,3.070022E0,9.387884E-1,1.3549743E0,2.5352383E0,2.8534536E0,2.4889166E0,3.651925E0,5.7946877E0,2.464711E0,3.835322E0,3.113473E0,1.6209865E-1,7.401949E-1,0E0,2.7819386E0,4.499867E0,2.4683208E0,2.833424E0,2.1347408E0,5.7463956E0,5.5546093E0,1.5479469E0,1.4636357E0,2.0690732E0,3.037208E0,6.944516E0,1.9550304E0,2.2104993E0,4.298022E0,2.1445339E0,3.530747E0,3.472077E0,2.570012E0,1.2441692E0,0E0,1.9619056E0,2.4038815E0,9.8655224E-2,3.3699582E0,2.8485138E0,0E0,0E0,0E0,0E0,1.2409444E0,0E0,0E0,0E0,0E0,0E0,0E0,0E0,0E0,0E0,0E0,0E0,0E0,0E0,0E0,0E0,0E0,0E0,0E0,0E0,0E0,0E0,0E0,0E0,0E0,0E0,0E0,0E0,0E0,0E0,0E0,0E0,0E0,0E0,0E0,0E0,0E0,0E0,0E0,0E0,0E0,0E0,0E0,0E0,0E0,0E0,0E0,0E0,0E0,0E0,0E0,0E0,0E0],"parents":[2147483647,0,0,1,1,2,2,3,3,4,4,5,5,6,6,7,7,8,8,9,9,10,10,11,11,12,12,13,13,14,14,15,15,16,16,17,17,18,18,19,19,20,20,21,21,22,22,23,23,24,24,25,25,26,26,27,27,28,28,29,29,30,30,32,32,33,33,34,34,35,35,36,36,37,37,38,38,39,39,40,40,41,41,42,42,43,43,44,44,45,45,46,46,47,47,48,48,49,49,50,50,51,51,53,53,54,54,55,55,56,56,57,57,62,62],"right_children":[2,4,6,8,10,12,14,16,18,20,22,24,26,28,30,32,34,36,38,40,42,44,46,48,50,52,54,56,58,60,62,-1,64,66,68,70,72,74,76,78,80,82,84,86,88,90,92,94,96,98,100,102,-1,104,106,108,110,112,-1,-1,-1,-1,114,-1,-1,-1,-1,-1,-1,-1,-1,-1,-1,-1,-1,-1,-1,-1,-1,-1,-1,-1,-1,-1,-1,-1,-1,-1,-1,-1,-1,-1,-1,-1,-1,-1,-1,-1,-1,-1,-1,-1,-1,-1,-1,-1,-1,-1,-1,-1,-1,-1,-1,-1,-1],"split_conditions":[7.499884E-1,-3.827897E-1,1.2754258E0,-1.1884701E0,5.618518E-1,8.424617E-1,1.3410637E0,-1.2597615E0,-6.859536E-1,-2.2630556E0,-3.1670478E-1,-6.293049E-1,8.754991E-1,1.0422628E0,-1.8710223E0,-1.0602863E0,-7.587547E-1,7.335523E-1,-4.1523156E-1,-2.2705506E-1,5.415795E-1,6.3012385E-1,6.370197E-1,-6.480966E-1,-7.868047E-1,-6.9238013E-1,9.798278E-1,-1.1923981E0,-1.3112129E0,-2.1849477E0,1.365844E0,-2.7410406E-1,-6.590721E-1,-8.766728E-1,6.370197E-1,5.984752E-1,-8.495386E-1,-4.2634675E-1,-5.5728155E-1,-7.1390843E-1,1.87186E-1,5.046204E-1,1.0389473E0,-3.6586234E-1,7.335523E-1,-2.7483574E-1,-1.6432247E-1,-4.233931E-1,1.0857565E0,-3.411911E-1,-3.411911E-1,1.0148239E0,-2.4325174E-1,1.0148239E0,1.3727499E0,9.8047775E-1,1.6023223E0,1.5084265E0,-3.3261108E-1,-3.7128527E-2,-2.1072091E-1,-2.4116846E-2,1.5084265E0,1.1801291E-1,-2.9644256E-3,2.54015E-1,-2.6170892E-1,3.4204322E-1,-4.319162E-2,-2.039264E-2,-1.3094142E-1,3.1397152E-1,-3.0010575E-2,1.8278904E-2,-1.7849286E-1,3.7537003E-1,5.514466E-2,-3.1014968E-2,-1.9846517E-1,-7.606881E-2,1.0668046E-1,1.974753E-3,-6.993473E-2,1.1622657E-1,-2.4798599E-1,-3.714761E-1,9.878021E-2,-2.868677E-1,-2.1473994E-2,6.847892E-2,-1.00126185E-1,1.3560188E-1,-5.4394517E-2,1.1784332E-2,-2.0840641E-2,2.1055928E-1,-2.2605391E-1,1.11593924E-1,-1.4601561E-1,-1.2690273E-1,-4.196719E-3,4.1525057E-1,1.3810141E-1,-8.58861E-2,6.538311E-2,1.0331919E-1,-6.217037E-2,-3.818487E-1,-1.1716158E-1,9.5253624E-2,-1.6933303E-1,-2.2792128E-1,1.5002063E-1,2.9265743E-1,-1.214233E-2],"split_indices":[2,3,0,0,2,0,2,0,0,0,3,3,0,2,3,3,3,2,3,2,2,2,2,3,0,3,0,3,3,3,0,0,3,3,2,2,3,3,0,2,3,2,0,3,2,3,3,0,2,3,3,2,0,2,2,2,0,0,0,0,0,0,0,0,0,0,0,0,0,0,0,0,0,0,0,0,0,0,0,0,0,0,0,0,0,0,0,0,0,0,0,0,0,0,0,0,0,0,0,0,0,0,0,0,0,0,0,0,0,0,0,0,0,0,0],"split_type":[0,0,0,0,0,0,0,0,0,0,0,0,0,0,0,0,0,0,0,0,0,0,0,0,0,0,0,0,0,0,0,0,0,0,0,0,0,0,0,0,0,0,0,0,0,0,0,0,0,0,0,0,0,0,0,0,0,0,0,0,0,0,0,0,0,0,0,0,0,0,0,0,0,0,0,0,0,0,0,0,0,0,0,0,0,0,0,0,0,0,0,0,0,0,0,0,0,0,0,0,0,0,0,0,0,0,0,0,0,0,0,0,0,0,0],"sum_hessian":[5.0811206E3,4.0165935E3,1.0645272E3,8.9323016E2,3.1233633E3,1.0216546E3,4.2872643E1,8.805704E1,8.0517316E2,3.0086707E3,1.14692635E2,9.207115E2,1.0094307E2,3.420221E1,8.670434E0,7.410467E1,1.3952376E1,1.1338013E2,6.91793E2,3.4725304E1,2.9739453E3,2.7301376E1,8.739126E1,8.1681116E2,1.0390038E2,9.841491E0,9.110158E1,2.0203377E1,1.3998834E1,2.7293997E0,5.9410343E0,1.6254992E0,7.2479164E1,4.3000317E0,9.652345E0,1.0806948E2,5.31065E0,6.362721E2,5.552091E1,1.9946766E1,1.477854E1,2.9547905E3,1.915498E1,1.1367302E1,1.5934074E1,4.62663E1,4.1124954E1,8.0751086E2,9.30028E0,2.1338627E1,8.256175E1,8.594327E0,1.2471629E0,2.9999481E1,6.1102093E1,3.1806598E0,1.7022717E1,5.221904E0,8.77693E0,1.2399324E0,1.4894673E0,1.7387942E0,4.20224E0,2.604187E1,4.6437294E1,2.6838431E0,1.6161886E0,8.110212E0,1.542132E0,8.0687E1,2.7382488E1,2.7027519E0,2.607898E0,6.236178E2,1.2654334E1,4.4675026E0,5.1053406E1,1.1668026E1,8.278739E0,9.43263E0,5.3459105E0,2.9193286E3,3.5461758E1,1.7783487E1,1.3714931E0,3.0836818E0,8.283621E0,1.2668753E1,3.265322E0,7.762749E0,3.850355E1,1.9433865E1,2.169109E1,2.7351068E2,5.340002E2,8.121288E0,1.1789919E0,1.5741213E1,5.5974135E0,6.2171307E1,2.039045E1,4.6638827E0,3.9304445E0,1.7871761E1,1.2127721E1,5.2520634E1,8.581462E0,1.7293463E0,1.4513134E0,1.1348563E1,5.6741533E0,2.486091E0,2.7358127E0,2.484069E0,1.7181711E0],"tree_param":{"num_deleted":"0","num_feature":"4","num_nodes":"115","size_leaf_vector":"1"}},{"base_weights":[-5.5011065E-4,1.4689094E-2,-1.6887413E-2,1.1802042E-2,3.8488793E-1,-2.703477E-3,-1.145825E-1,9.973779E-2,2.371407E-3,-2.3565824E-1,1.1296641E0,-6.8641943E-3,3.9329603E-1,-5.882448E-1,-9.693367E-2,1.7856687E-1,-6.2317923E-2,1.1781746E-2,-1.19796515E-1,-6.615943E-1,2.2632642E-1,6.8129075E-1,1.483512E0,-4.5476877E-3,-3.9573926E-1,3.7308776E-1,1.2348256E-1,-7.2068924E-1,1.6110655E-2,-8.4269E-2,-7.994206E-1,4.7085818E-2,3.2736734E-1,-1.0578815E0,1.4788065E-2,1.2796532E-1,3.0312005E-3,-1.7243074E-2,-2.964102E-1,6.176959E-2,-1.05277E0,2.3023464E-1,-2.412623E-1,4.379639E-2,2.463498E-1,5.3978807E-1,7.948062E-2,-2.4662592E-2,4.281173E-2,-6.253244E-1,-1.4861636E-1,-2.3009136E-1,2.2566831E-1,-2.5968847E-1,-8.7498575E-1,3.7736157E-1,-9.929803E-2,-3.268831E-1,-5.5757064E-2,3.0471388E-2,-1.2929834E-1,7.164326E-2,1.9315103E-1,-3.9673224E-1,-1.5211709E-1,-1.7108727E-2,2.4768862E-1,8.9789614E-2,4.61462E-3,-1.0255592E-1,1.993891E-3,-2.2380218E-2,2.981585E-1,-1.0814441E-1,1.6356942E-1,-3.6120844E-1,-1.0531337E-1,-2.1547657E-1,1.6966338E-1,-4.5428327E-3,-8.245079E-2,2.5059715E-2,-2.1891994E-2,-1.9486595E-2,-2.4464288E-1,7.95126E-2,-2.1932368E-1,2.3801838E-1,5.7102065E-3,-2.1582909E-1,1.1097722E-1,5.5683716E-3,-3.3620894E-1,3.090836E-1,2.760653E-2,-2.1343675E-2,-7.521027E-2],"categories":[],"categories_nodes":[],"categories_segments":[],"categories_sizes":[],"default_left":[0,0,0,0,0,0,0,0,0,0,0,0,0,0,0,0,0,0,0,0,0,0,0,0,0,0,0,0,0,0,0,0,0,0,0,0,0,0,0,0,0,0,0,0,0,0,0,0,0,0,0,0,0,0,0,0,0,0,0,0,0,0,0,0,0,0,0,0,0,0,0,0,0,0,0,0,0,0,0,0,0,0,0,0,0,0,0,0,0,0,0,0,0,0,0,0,0],"id":13,"left_children":[1,3,5,7,9,11,13,15,17,19,21,23,25,27,29,31,33,35,37,39,41,43,45,47,49,-1,51,53,-1,55,57,59,61,63,65,67,69,71,73,-1,75,-1,77,-1,-1,-1,-1,79,81,83,85,-1,87,89,91,93,95,-1,-1,-1,-1,-1,-1,-1,-1,-1,-1,-1,-1,-1,-1,-1,-1,-1,-1,-1,-1,-1,-1,-1,-1,-1,-1,-1,-1,-1,-1,-1,-1,-1,-1,-1,-1,-1,-1,-1,-1],"loss_changes":[1.2625154E0,2.7996202E0,3.3909342E0,2.159587E0,9.634972E0,3.5254717E0,2.5364928E0,3.2333283E0,2.7067385E0,2.4884765E0,4.78446E-1,1.9050994E0,4.950803E0,9.6946454E-1,2.604306E0,3.3095398E0,6.4088516E0,2.221853E0,3.044778E0,2.4017234E0,1.8162647E0,3.2857156E-1,1.2151833E0,2.0066254E0,6.175958E-1,0E0,1.8108653E0,4.2321825E-1,0E0,2.0917492E0,7.233741E-1,2.4244275E0,2.0758247E0,2.0386553E-1,4.6057158E0,2.9480488E0,2.5379128E0,6.3138494E0,3.528902E0,0E0,6.572342E-2,0E0,2.029864E0,0E0,0E0,0E0,0E0,3.516606E0,2.9669216E0,6.0557914E-1,1.9630245E0,0E0,1.9696977E0,1.3415179E0,1.4323487E0,1.6833117E0,1.2078168E0,0E0,0E0,0E0,0E0,0E0,0E0,0E0,0E0,0E0,0E0,0E0,0E0,0E0,0E0,0E0,0E0,0E0,0E0,0E0,0E0,0E0,0E0,0E0,0E0,0E0,0E0,0E0,0E0,0E0,0E0,0E0,0E0,0E0,0E0,0E0,0E0,0E0,0E0,0E0,0E0],"parents":[2147483647,0,0,1,1,2,2,3,3,4,4,5,5,6,6,7,7,8,8,9,9,10,10,11,11,12,12,13,13,14,14,15,15,16,16,17,17,18,18,19,19,20,20,21,21,22,22,23,23,24,24,26,26,27,27,29,29,30,30,31,31,32,32,33,33,34,34,35,35,36,36,37,37,38,38,40,40,42,42,47,47,48,48,49,49,50,50,52,52,53,53,54,54,55,55,56,56],"right_children":[2,4,6,8,10,12,14,16,18,20,22,24,26,28,30,32,34,36,38,40,42,44,46,48,50,-1,52,54,-1,56,58,60,62,64,66,68,70,72,74,-1,76,-1,78,-1,-1,-1,-1,80,82,84,86,-1,88,90,92,94,96,-1,-1,-1,-1,-1,-1,-1,-1,-1,-1,-1,-1,-1,-1,-1,-1,-1,-1,-1,-1,-1,-1,-1,-1,-1,-1,-1,-1,-1,-1,-1,-1,-1,-1,-1,-1,-1,-1,-1,-1],"split_conditions":[2.4134913E-1,2.3478583E-1,-1.6432247E-1,-1.8204689E-1,1.8866856E-1,-1.8204689E-1,-1.5595299E-1,6.877075E-1,1.3234521E-1,-1.7402917E-1,-1.8204689E-1,1.9309577E0,2.8328833E-1,8.02469E-1,1.734472E0,-4.1296023E-1,7.520435E-1,-1.8547088E-2,4.6166196E-1,-4.7063905E-1,-1.8547088E-2,6.651029E-1,1.4927804E-1,4.3210217E-1,4.33673E-1,3.7308776E-1,-1.3171422E0,3.3564496E-1,1.6110655E-2,-1.4958729E-1,3.4331116E-1,-5.3293824E-1,2.0061696E-1,-3.3381104E-1,2.1374649E-1,-4.581693E-1,-2.4217737E-3,3.6602733E-1,4.3114847E-1,6.176959E-2,-2.7483574E-1,2.3023464E-1,-4.0426618E-1,4.379639E-2,2.463498E-1,5.3978807E-1,7.948062E-2,-2.4107505E-1,1.1328433E0,3.2122913E-1,8.5866934E-1,-2.3009136E-1,-7.2420746E-1,2.902051E-1,-6.859536E-1,-8.128869E-1,2.2496587E-1,-3.268831E-1,-5.5757064E-2,3.0471388E-2,-1.2929834E-1,7.164326E-2,1.9315103E-1,-3.9673224E-1,-1.5211709E-1,-1.7108727E-2,2.4768862E-1,8.9789614E-2,4.61462E-3,-1.0255592E-1,1.993891E-3,-2.2380218E-2,2.981585E-1,-1.0814441E-1,1.6356942E-1,-3.6120844E-1,-1.0531337E-1,-2.1547657E-1,1.6966338E-1,-4.5428327E-3,-8.245079E-2,2.5059715E-2,-2.1891994E-2,-1.9486595E-2,-2.4464288E-1,7.95126E-2,-2.1932368E-1,2.3801838E-1,5.7102065E-3,-2.1582909E-1,1.1097722E-1,5.5683716E-3,-3.3620894E-1,3.090836E-1,2.760653E-2,-2.1343675E-2,-7.521027E-2],"split_indices":[2,2,3,3,0,3,3,0,2,3,3,0,2,0,0,0,0,3,0,3,3,0,3,0,2,0,0,2,0,3,2,0,2,3,2,0,3,0,3,0,3,0,0,0,0,0,0,3,0,2,2,0,0,2,0,0,3,0,0,0,0,0,0,0,0,0,0,0,0,0,0,0,0,0,0,0,0,0,0,0,0,0,0,0,0,0,0,0,0,0,0,0,0,0,0,0,0],"split_type":[0,0,0,0,0,0,0,0,0,0,0,0,0,0,0,0,0,0,0,0,0,0,0,0,0,0,0,0,0,0,0,0,0,0,0,0,0,0,0,0,0,0,0,0,0,0,0,0,0,0,0,0,0,0,0,0,0,0,0,0,0,0,0,0,0,0,0,0,0,0,0,0,0,0,0,0,0,0,0,0,0,0,0,0,0,0,0,0,0,0,0,0,0,0,0,0,0],"sum_hessian":[5.0690093E3,2.622696E3,2.4463132E3,2.6034248E3,1.9271326E1,2.1370688E3,3.092443E2,2.5123293E2,2.352192E3,1.0885299E1,8.386027E0,2.1158208E3,2.1248E1,9.947269E0,2.9929703E2,1.689489E2,8.228403E1,2.1848044E3,1.6738734E2,5.4388094E0,5.446489E0,4.9892936E0,3.3967335E0,2.1042974E3,1.1523484E1,4.2487273E0,1.6999271E1,8.144301E0,1.8029673E0,2.9509686E2,4.2001476E0,9.0393265E1,7.855564E1,5.0004363E0,7.728359E1,1.520723E2,2.0327323E3,1.0659118E2,6.079617E1,1.8375032E0,3.6013062E0,2.2274532E0,3.2190359E0,1.4570109E0,3.5322828E0,2.319187E0,1.0775467E0,1.4773175E3,6.269799E2,5.1803517E0,6.343132E0,1.0802491E0,1.5919023E1,2.7151473E0,5.4291544E0,8.544224E0,2.8655264E2,2.3247619E0,1.8753858E0,8.1852325E1,8.540937E0,6.27509E1,1.580474E1,2.4316728E0,2.5687633E0,7.184946E1,5.4341288E0,5.9644535E1,9.242776E1,2.011567E1,2.0126166E3,1.01745605E2,4.845577E0,5.702663E1,3.7695415E0,2.3738155E0,1.2274908E0,2.0919864E0,1.1270493E0,1.4241837E3,5.3133755E1,4.6405435E2,1.6292555E2,1.6523999E0,3.527952E0,4.0276814E0,2.315451E0,3.4901774E0,1.2428844E1,1.4868193E0,1.228328E0,1.3703228E0,4.0588317E0,1.8044825E0,6.739741E0,2.4286356E2,4.36891E1],"tree_param":{"num_deleted":"0","num_feature":"4","num_nodes":"97","size_leaf_vector":"1"}},{"base_weights":[-3.6888462E-4,2.3585516E-3,-8.892731E-2,1.21476255E-1,-1.3235834E-3,-3.8942162E-2,-7.7307874E-1,1.5352383E-1,-3.8440117E-1,-2.505131E-1,1.8539343E-3,-7.98764E-1,-2.6447151E-3,-9.121592E-1,-2.0558876E-1,-1.9727187E-2,2.7374855E-1,-6.464136E-1,1.418614E-1,-3.8011274E-1,6.925266E-1,2.5015885E-1,-2.1697055E-4,-8.842845E-1,-9.215974E-2,1.308954E-1,-9.071386E-2,-4.003368E-1,-5.113543E-1,-1.2428961E-1,3.1390917E-2,-7.9916346E-1,5.1699724E-2,6.666383E-1,1.19860016E-1,-1.0271965E0,5.0796587E-2,7.124653E-1,-4.8209268E-1,8.333401E-1,3.9753094E-2,-6.9927174E-1,3.6484072E-1,-1.0649685E-3,7.485651E-1,-9.215974E-2,-3.1288746E-1,-2.2975701E-1,2.2926782E-1,-1.0820367E0,-9.742495E-3,7.514502E-2,-3.231405E-1,1.5117531E-2,-3.276415E-1,5.1821902E-2,-1.790782E-1,7.813537E-2,2.562452E-1,1.3061234E-1,-6.3814506E-2,-3.7967798E-1,-4.189766E-2,-7.032654E-2,3.2817185E-1,-1.0032653E-1,-2.2432795E-1,1.8298212E-2,3.0517378E-1,1.5434451E-2,-3.1092682E-1,2.4944846E-1,1.812223E-2,6.761482E-4,-4.587945E-2,3.9715412E-1,-2.398767E-1,1.3018465E-1,-1.72114E-1,9.4696E-2,-5.072175E-2,-3.7473357E-1,-6.901495E-2,3.4242187E-2,-5.465522E-2],"categories":[],"categories_nodes":[],"categories_segments":[],"categories_sizes":[],"default_left":[0,0,0,0,0,0,0,0,0,0,0,0,0,0,0,0,0,0,0,0,0,0,0,0,0,0,0,0,0,0,0,0,0,0,0,0,0,0,0,0,0,0,0,0,0,0,0,0,0,0,0,0,0,0,0,0,0,0,0,0,0,0,0,0,0,0,0,0,0,0,0,0,0,0,0,0,0,0,0,0,0,0,0,0,0],"id":14,"left_children":[1,3,5,7,9,11,13,15,17,19,21,23,25,27,29,31,33,35,-1,37,39,41,43,45,-1,47,49,-1,51,-1,-1,53,55,57,59,61,-1,63,65,67,-1,69,71,73,75,-1,-1,77,79,81,83,-1,-1,-1,-1,-1,-1,-1,-1,-1,-1,-1,-1,-1,-1,-1,-1,-1,-1,-1,-1,-1,-1,-1,-1,-1,-1,-1,-1,-1,-1,-1,-1,-1,-1],"loss_changes":[1.2218574E0,2.1526952E0,5.1385794E0,2.4448924E0,3.7706313E0,3.9115627E0,6.2050676E-1,2.902994E0,2.3391218E0,7.5912313E0,2.41817E0,1.9454956E-4,1.6164917E0,6.601176E-1,2.574151E-1,3.265969E0,4.8894963E0,2.4589193E0,0E0,6.2888837E0,4.8879552E-1,4.4902554E0,2.9626796E0,1.3523912E-1,0E0,1.9908841E0,6.636301E0,0E0,2.7226498E0,0E0,0E0,1.2803788E0,4.342525E0,1.5227251E0,6.417741E0,9.143362E-1,0E0,2.0475085E0,1.687994E0,7.735553E-1,0E0,1.2011104E0,4.973414E0,2.3492296E0,5.7593937E0,0E0,0E0,3.035709E0,1.547611E0,6.014328E-1,1.6777512E0,0E0,0E0,0E0,0E0,0E0,0E0,0E0,0E0,0E0,0E0,0E0,0E0,0E0,0E0,0E0,0E0,0E0,0E0,0E0,0E0,0E0,0E0,0E0,0E0,0E0,0E0,0E0,0E0,0E0,0E0,0E0,0E0,0E0,0E0],"parents":[2147483647,0,0,1,1,2,2,3,3,4,4,5,5,6,6,7,7,8,8,9,9,10,10,11,11,12,12,13,13,14,14,15,15,16,16,17,17,19,19,20,20,21,21,22,22,23,23,25,25,26,26,28,28,31,31,32,32,33,33,34,34,35,35,37,37,38,38,39,39,41,41,42,42,43,43,44,44,47,47,48,48,49,49,50,50],"right_children":[2,4,6,8,10,12,14,16,18,20,22,24,26,28,30,32,34,36,-1,38,40,42,44,46,-1,48,50,-1,52,-1,-1,54,56,58,60,62,-1,